node,1,2,3,4,5,6,7,8,9,10,11,12,13,14,15,16,17,18,19,20,21,22,23,24,25,26,27,28,29,30,31,32,33,34,35,36,37,38,39,40,41,42,43,44,45,46,47,48,49,50,51,52,53,54,55,56,57,58,59,60,61,62,63,64
USAAUCX18,0.23138714,-0.3923543,0.08290341,-0.85135365,0.34019113,0.26352559999999997,-0.25665155,-0.07194948,-0.4299147,-0.19663632,0.1837736,0.035470087000000004,0.62492293,0.51897234,0.5395324,-0.15299697,0.15283638,-0.17583224,-0.5687517,0.008541124,0.09462024,0.15750884,-0.5456388000000001,-0.15100671,-0.34073564,0.13210225,-0.18402542,0.004256168,-0.70418245,0.13497463,-0.27716744,0.29319334,-0.06287212,0.47747678,-0.26672316,-0.54419196,0.6446485,0.019515509,-0.38227996,-0.30334690000000003,0.06550581,0.099136166,0.052828833,-0.24131279999999997,-0.05033295,0.12684554,-0.050652265999999994,0.57408184,0.27250272,0.047028627,-0.57847226,0.32614687,-0.0032298102,0.42877164,-0.09740007,-0.23894581,-0.42097875,0.19440868,0.10868055,0.61921984,0.84224457,-0.03762541,0.039953116000000004,-0.7832937
USNLJ4U21,0.13921969,-0.10464286,-0.22156334,-0.27430043,0.670858,0.03631641,-0.08426043400000001,0.29307905,0.6609111999999999,-1.4842852,0.16652657,-0.3321398,0.13789293,-0.61185104,-0.7731229000000001,-0.50368494,0.0053128023,-0.49374485,-0.6742476,-0.16203469,-0.35986245,-0.49804634,-0.595992,0.10216062,0.16657515,-0.041632526,-0.29697227,-0.3128533,-0.24172957,-0.8466225000000001,0.47171447,-0.13675620000000002,0.14120376,-0.86089015,0.19175836,0.5104791,0.21272473,0.80688745,0.9857995999999999,0.5074317,-0.10967423,-0.19723096,0.333496,0.09764681,0.33559126,-0.09755624,0.32865563,-0.10046395,0.5199514000000001,-0.6339176999999999,0.60802597,0.15357433,0.059091408,0.65948623,0.24357434,0.7308097,0.07484531,-0.7037024000000001,-0.13477732,-0.17862399,-0.048831027,0.018155186,-0.19938415,0.7835075
USSGVJBL5,0.97358423,0.33072579999999996,-0.10012871,-0.12098233,0.42215124,0.61730874,0.739613,0.49910638,0.6934408000000001,0.056244947,-0.048022468,-0.13028215,0.20582896,0.71954525,0.4710357,0.7186706,-0.030106151,-0.13189203,0.35810485,-0.5138267,1.2695397,-0.35842090000000004,0.87666506,-0.7059512,0.39965948,0.18029147,0.88944185,0.15097617,-0.01391747,0.6731577,-0.04756694,-0.30243975,0.098922774,-0.63925034,-0.04994024,0.38239294,-1.1601048999999999,0.23636773,0.31899998,0.023098102000000002,0.68633527,-0.04879586,-0.8906628000000001,-0.2806637,0.63202715,-0.52996516,-0.5892718000000001,0.28287026,-0.4104434,-0.21430756,-0.8827478000000001,-0.13273673,-0.25252329999999995,-0.65595806,-0.18092932,0.6735232,0.49213684,-0.31137420000000005,-0.34053773,-0.48181435,-0.2881877,0.11258249,1.2380543,0.6519481
USWMKAJHW,-0.06957339,-0.22165598,0.6593104000000001,0.49700722,0.020983247000000003,0.43203240000000004,0.33063322,0.25130618,0.32399756,0.36860445,0.62547046,0.43682959999999993,0.0073718275,-0.1750992,0.43708625,-0.13643752,0.5790723000000001,-0.17623001,-0.2740974,0.20789157,-0.07967775,0.19631378,-0.21868595,0.08671459599999999,0.6763609,-0.30678099999999997,0.061170068,-0.2974035,-0.36509153,-0.085512646,-0.6930063,-0.27145782,0.45919532,-0.15917382,0.20713603,-0.24726598,-0.65712595,-0.44388214,-0.89639604,-0.26936817,-0.6513419,-0.06439941,0.21084940000000002,-0.13017568,-0.11396822,-0.49067888,-0.079235494,0.36035404,-0.017809117,0.33068538,-0.27353543,-0.07018591,0.38150674,-0.058561757,-0.38081604,-0.7865694999999999,-0.38261290000000003,-0.0534806,0.0032219292999999998,0.1347337,0.7172194000000001,0.100456916,-0.04374932,-0.45142844
USUMX9TAA,-0.75918365,-0.30253816,-0.44230488,0.5074417999999999,-0.21963876,-0.23324564,-1.1545181,0.101689145,-0.7337943,0.41870245,-0.16944602,-1.5412169,-0.056559503,-0.18028837,0.34618259999999995,0.32215098,-1.1251947,0.16082576,1.0128891,-0.021657819,-1.3787118999999999,-0.24832016,0.6589079999999999,0.10677107400000001,-0.5017668,0.013282115,0.28899246,-0.08529921,0.82577664,-0.39572033,-0.6848938,-0.21558595,-0.81466573,0.7256469,-0.19193272,0.03420649,-0.4584182,-0.41019849999999997,-1.0126858,-0.20204948,0.25771073,-0.6026403,-0.16678315,0.71062726,0.9214239,0.014792296000000002,-0.40632108,-1.2562026000000002,0.82156825,-0.18921703,0.10903059,0.0649716,-0.11137316,-0.5227513,-0.34562603,0.13325831,0.24512698,0.033327817999999995,0.9380589,-0.77565706,-0.91752714,-0.36276653,-0.51709604,0.53960764
USF2R12F5,0.5034926,0.3381078,-0.23350725,1.1073385,0.10892555,-0.45080453,-0.9944346,0.063922435,0.22771493,1.0500975000000001,0.4990446,0.082796074,0.6175955,-0.58665293,-0.12068875,0.14232156,-0.71887654,0.013248547,-0.41383222,0.22415838,0.76657224,-0.34407014,-0.7367302,-0.11366505,-0.14641063,0.09678997,0.064022735,0.663605,1.0402584000000001,0.07900468,0.42152712,-0.32968527,-0.523112,-0.7434184,0.14206988,0.27885213,-0.18983250000000002,0.65782344,1.1152455,-0.34973538,-0.12465964,0.22771599999999997,0.5734481,-1.555818,0.23724295,0.541277,0.9705896,-0.86430764,0.033857916,0.46448326,0.12314131,0.74034417,0.07374510000000001,0.67264295,-0.0839678,0.021181207,0.4813699000000001,-0.6167074,0.25770774,-1.0102141,0.37484732,0.05850793,0.47484620000000005,0.16251963
USUCEMMF1,0.32560134,-0.38303742,-1.1242418,0.010377093,0.9011971999999999,-0.6835477,-0.9760030999999999,-0.22267775,-0.24326329,1.116852,0.3410831,0.66606295,-0.6039383,0.1240396,-0.4352411,-0.17978804,-0.80353916,0.021855292999999998,-0.10321739,0.41224304,-1.2210056999999999,-0.082587175,-0.15464063,-0.17203064,-0.14542139,0.58132285,0.13488887,0.7877522,-0.30915198,0.16655792,0.34855464,0.0071214167,0.12585336,-0.7235751,1.2322985,-0.8006446999999999,0.5541139,1.2134943,0.26651067,0.10194094,1.1404698999999998,0.7455166999999999,0.7464805,-0.05678134,-0.120574005,-0.60984075,-0.6156434000000001,1.0770693999999998,0.38643449999999996,0.6908641,0.21669565,-0.92576593,0.60581094,-0.7388897,1.3771723999999999,0.6099289999999999,0.22669642,0.14306411,-0.41909295,0.7254108,-1.0395477,-0.04671685,-0.568444,0.37086535
USUC952G7,0.59538734,-0.13078162,0.081911355,0.17204146,-0.95717263,-1.4229475,1.3898531,-0.5282081,0.11960042,-1.430652,-0.6477377,-0.6051969,0.008310033,0.7801737,-0.56116694,0.13619108,-0.54950666,-0.4003567,-0.14147885,-0.83165264,-0.047167352999999995,0.6073010999999999,-0.5800470999999999,-0.5583665,-0.971902,0.6892782,-0.39069313,-0.5768923,0.1363178,-0.85910916,-0.41894528,-0.009939571,-0.02773591,-1.1809412000000001,0.818967,-0.35273856,-0.51133215,-0.34995183,0.5068210999999999,1.2158535,0.120174,0.90926045,0.0039260555,-0.5086927,0.36396942,0.40596724,0.15189552,-0.38748217,-0.5965109000000001,0.6167074,0.35353622,0.3089751,0.6825293,0.052978582999999996,0.04259892,0.048882917000000005,0.39646068,-1.1486813999999999,0.5142449,-0.0041797613,-0.25692,0.33213186,-0.98528105,0.37365618
USUC4M2HM,-0.28773236,0.8769534999999999,0.45508277,0.81917393,0.15239665,-1.1045951,-0.37811843,0.30490038,1.053549,-0.6144009,-0.03416525,0.05478566,0.28372467,-0.1792481,-0.36172825,-0.73685855,0.49906895,-1.2088466999999998,0.20955347,0.39458263,0.409612,-0.28914124,0.43030795,0.43506396,-0.09327926,0.017983448,0.12456872,0.18214293,-0.11709769,-0.07752728,-0.31890786,-0.84036183,-0.96651536,-0.7628889,-0.4528213,-0.59138876,-0.23649429,-0.5544989,1.0682425,0.57304424,0.010573599,0.097248316,-0.23576473,-0.2893284,0.96828866,0.10688039999999999,-0.26756147,-0.22266044,0.72989136,1.2840658,0.26640546,0.81950396,0.8121616999999999,-0.50916183,-0.6624791,-0.4073176,-1.0394859,0.23571162,-0.8003814,0.6815989,-0.5024563,-0.44860473,-0.44309312,0.6967393
USSGPS9TP,-0.5768126,-0.1260587,1.0935819,-0.051855244,0.309177,-0.14807642,-0.97479725,-0.62361926,-1.0174773000000001,-0.021638606,-0.44193462,0.9642526,-0.040321074,0.46645543,-1.3771188,0.05376922,-0.0575043,0.05416244,0.78829813,-0.99975944,-0.057153784000000006,0.59273946,1.0020638000000002,0.25203514,-0.09033324,-0.26810643,-0.43128973,-0.98061943,0.8555386999999999,-0.27131954,0.0019510462,0.36810290000000007,-0.19986188,-0.043925952000000004,0.12329632,0.0015812229999999999,0.52630776,-0.6631621999999999,-0.33195353,0.3651833,-0.70936674,-0.26252937,-0.94219613,-1.5467248,0.9075494000000001,0.6463897,-0.34774238,0.6454847,0.97867095,-0.5574139,0.58882356,-1.1857866000000001,-0.07497983400000001,0.32358947,-0.22833999,0.48914635,-0.1450174,0.11508078,-0.6619463000000001,-0.26099274,0.5577944,1.5627558000000001,0.28335540000000004,-0.35201409999999994
USSGPU9V3,0.35557923,0.83927995,0.6890403,-0.14490746,0.8747328999999999,-1.0169433,0.008515473,-0.31524074,-0.1683438,-0.47702438,-0.28163883,-0.6052939,-0.43551844,-0.39837617,-0.087913506,0.67283946,-0.27537525,-0.40278047,-0.071563266,-0.40001848,-0.48042983,0.7229641,0.39310983,0.2582814,0.8713201999999999,-0.6201316,0.5980873999999999,-0.369087,0.5223247999999999,0.6801575,0.046313524,0.77729326,0.5955123000000001,-0.056610104,-0.37283114,0.23610869,-1.4212120000000001,0.41831025,0.12785931,-0.23674953,0.32755378,0.5569693,0.03382875,-0.38683449999999997,-0.20921057,0.7969967,0.52439773,-0.54817563,-0.01785311,0.41778904,0.50798845,0.08593075,-0.36232603,1.2376913999999999,-0.22677815,-0.6965188,0.630521,-0.34158927,0.44424534,-0.040057443,0.026360096,0.6060007,-0.2434348,0.48662743
USQB3PP8R,-0.68008363,-0.011048418,0.14758964,-0.11758634,-0.9642438,-0.36442462,-0.46736047,-0.6245435,-1.103034,0.41365087,0.61584115,-1.0273021,-1.6279365,0.5244446,1.7623278000000002,0.29197794,0.16608743,0.20472905,1.1055158,1.6212,-0.23620757,0.29697758,0.35447690000000004,0.89415056,-1.2582323999999998,0.8481034,-0.42216509999999996,0.10754689,1.4470265,0.37875652,-1.2602481,-0.5574600000000001,1.2802409,0.77156615,-0.4810456,-0.045528985999999994,2.4162939999999997,1.8046494999999998,-0.7066551,0.31533557,0.32428090000000004,-0.59534085,-1.252673,0.3377812,0.05579527,0.020219436,-0.32589653,-1.2111348999999998,-0.5068741,0.04673513,0.11486099999999999,-0.25450823,0.04773692400000001,-0.03038879,-0.48457044,0.89039636,1.2749805,-0.56266934,-0.668813,-0.20354593,0.24645902,-1.0651726000000001,-0.26878783,1.0322332
USUNKHZUN,0.40078193,0.09387958,0.054212786,-0.5735744,0.4483495,-0.84476894,-0.29688400000000004,-1.0995578000000001,1.2519001,-0.21392020000000003,1.0680903999999998,-0.17700781,1.4327562,-0.18834409,-0.7059339,0.3144367,-0.7246233,0.038467094,-0.8747088,-0.2713197,-0.9350497999999999,-0.30673015,0.4675777,-0.84013414,0.14561589,0.13922146,0.9785671,-0.52442575,0.44655916,-0.28227594,-0.44694895,-0.22625221,0.085552305,1.2746761999999998,0.47762740000000004,1.32996,0.21560556,0.48444703,-0.8639109,0.32177058,-0.600193,-0.7360495,0.18288057,-0.013984508,-0.42588052,-0.83735925,1.0834215,0.40497532,0.43031099999999994,0.48927948,0.19581912,0.16939577,-0.03821789,-0.6197376,0.6695731,-1.5066692,-1.0407875,-0.0433973,-0.813341,-0.6741923000000001,-0.52797735,-0.26720876,-0.76251084,-0.26082289999999997
USSGPSV29,0.23849829,0.117573395,0.8194908999999999,0.8736502,-0.931465,-1.3011388000000002,-0.16972427,-0.3182124,-0.08884271,0.53925735,1.0016447,-0.37302992,-0.9300056000000001,-0.23038313,0.57131696,-0.114175424,-0.6544565,-0.6624721,-0.03318048,0.29336223,0.24829748,-0.33698958,-0.13208118,-0.93699735,1.1496648999999999,-0.5730991999999999,0.09229675,0.25294720000000004,-0.78362066,0.24813588,0.12132444,-0.11661698,-0.28415024,-1.0061296,-0.8702591999999999,0.18669492,0.11986877,0.56364745,0.30992759999999997,-0.46215472,-0.14232326,-0.33485436,-0.046153743,0.97591835,0.34682962,1.0628448,1.1160561000000002,-0.10805716,-0.016375557,0.8800323,0.5978143,0.07842293,-0.35203698,-0.21694665,0.8628435,0.026595246,0.29327503,-0.03868891,-1.1459671,0.7618369,0.64295286,0.34440956,0.081339374,0.08307335
U011EKVFRV3,-0.87653774,1.2157360000000001,-0.35105583,-0.86193,0.41704246,0.72158086,1.2889093,0.16367668,0.5668708,-0.7146524999999999,0.13244179,-0.09193219,-0.42614776,0.44296518,-0.3016123,0.7303211,-1.8284846999999997,-0.7674302,-0.1243027,-0.09066366,-1.2387743,-1.527261,0.16132879999999997,0.0027493021999999995,-0.20810251,0.16517867,-0.5328885,0.51612407,1.1962343,-1.0451181999999999,0.53603303,-0.46573457,0.21180482,-0.10017561,-0.21202104,-0.7437630000000001,0.41303137,-0.22748077,-0.6369984999999999,0.74900275,0.14950107,0.47684547,-0.44274938,1.0975475000000001,1.1662035,-0.13335751,-0.6452045,-1.6759322,1.9724358,-1.3480784,0.18666656,-0.17105438,0.5613111,0.172565,0.94375443,-0.41738279999999994,-0.0008992267,-0.13632886,-0.1264932,-2.4161509999999997,0.73352945,-0.519225,1.3735760000000001,-0.5825123000000001
USUNC5F2A,1.2767568,-0.16725256,0.26697612,-0.59331423,-0.35512632,-1.258294,-0.3194368,-0.5982546,-0.048339613,-0.10788943599999999,1.3069786,-1.2254989,0.03172356,1.1737761,-0.079289965,-0.12034158,-1.3073398,0.18823723,0.8654947000000001,0.25465268,0.21798651,-0.6556287,-0.41965866,0.6673876999999999,1.7030349999999999,0.27356842,0.4062909,-0.75884366,-0.31081674,-0.8929159,0.9648940999999999,-1.0848559,-0.01506671,-0.98882794,-0.053464327,0.25488320000000003,-0.8690356,-0.30177274,-0.0133523615,1.0728843000000001,-0.88848495,0.11286692,0.1323903,-0.73053324,-0.40735757,0.2816734,0.9548338,-0.88050073,0.08025325,-0.43650344,0.5865425999999999,0.46291575,0.22255713,-1.3095733,0.025541974,0.49527043,0.6058778,-0.7098648,-0.9623195999999999,0.9972319,0.50309813,0.64085037,-1.1547457,0.69993997
USSGH31FA,0.0043001216999999994,0.30597216,-0.35240066,0.52158815,0.2661949,-0.18431874,0.23141558,-1.2962133,0.5124877,-0.8687872999999999,0.5181422,0.39484197,0.22444263,-0.09880634,-0.39778408,-0.026721632000000002,-0.020194683,0.42472926,-0.09103457,0.7040706999999999,0.13030814,-1.2155066,0.11220468,0.72608405,-1.2366110000000001,0.29638696,0.18699943,-0.7313864000000001,0.50350726,0.32856490000000005,-0.17710155,0.15452594,-0.75211954,-0.751454,0.5651881,0.13955656,-0.32853699999999997,-0.30626518,0.41490754,0.67599845,0.7504603,0.90133625,-0.23359397,-0.21113384,0.15439193,0.7321099,0.26129124,0.8663508,0.531854,-0.22302654,-0.35189652,0.34231418,-0.3548116,0.39369133,-1.0244636999999999,-0.6460402,0.07320725,-1.0389476999999998,0.0193463,-0.36022264,-0.95981747,0.1188526,0.07302239,0.24750698
USUMBA50E,-1.2807726000000001,0.9932814,1.5440040000000002,0.30499829999999994,1.6462043999999998,-0.6225813,1.6381127,0.27327824,-0.35322022,0.16723514,-0.42029363,-0.30807763,0.35683233,0.0232608,-1.2444872999999999,-1.2685176999999999,0.67940795,1.1970174,-0.015731603,-0.12843528,1.685153,-1.6820127,-1.2199461,-0.47869852,1.0735495000000002,-0.27857956,-0.010278253000000001,0.0071033984,0.29651868,-1.457108,-0.019936597,1.4764066,-1.0253417,0.46777713,1.4687456,-0.09859524,1.5925095,-0.9487798000000001,-0.010139388000000001,0.84333885,0.21904764,-0.52961886,1.0235324000000001,-0.47256118,-0.45814678,-0.6859995,-0.21292655,0.8128008000000001,-0.35165322,-1.0991851000000001,0.9264803,-0.5408366,-1.2986591,-0.52364635,-1.3537042,-0.2583826,1.0926225,-0.43904775,-0.43168005,-0.13871524,0.8506154,-0.43107638,-0.04730285,1.364356
USDNRC2MQ,-0.59142905,-0.27076322,0.30270255,1.0470046,-1.2993367,-0.67972887,0.39305064,0.83549434,0.3609453,-1.0826069999999999,-0.041379716000000004,-0.22389942,0.47869470000000003,-0.0030250463,-0.054910507000000004,-0.09441669999999999,0.25781834,1.9842877,-0.70677173,0.6982939,0.30374783,-0.38278735,-0.23681723,0.64663583,-0.002802759,0.55952,0.92994213,0.048088692,-0.9034873,0.83371544,-0.7728316,-0.5516743000000001,-0.43160647,0.32298416,0.47013226,-0.034782354,-0.35178059999999994,1.1444792,1.8282771,0.76868826,-0.037323497000000004,0.046342768,-0.87871253,1.3026833999999998,0.3727935,1.6761574000000001,-0.19591013,0.17861679,0.064265005,-0.43540505,0.66614133,-0.606128,0.35693502,-0.3220542,1.2940351,0.39998004,-0.0042186915,-0.35538673,0.5944316,-0.36393672,0.12169587,0.55147713,0.01499672,-0.8795700000000001
USDNX1VDY,0.6032919,0.33655205,-0.45785233,1.7824467000000002,1.0866133,-0.10839302,0.73873496,0.39485690000000007,0.43032637,-0.491116,0.49406564,0.26084554,-0.28195336,0.8753566999999999,-0.22079339999999997,0.34339002,-0.34578967,0.15237148,-0.77708995,0.39441147,-1.2770776000000001,-0.68438655,-0.5373431,-0.26476946,0.5676749,0.27846658,-0.0642962,-0.39601564,0.035356343,0.5569333000000001,0.09784397,-0.9504614,-0.8472151,0.3621479,-0.38973638,-0.590549,0.20224041,-0.21236266,0.8487444,0.5532016,-0.9428690999999999,1.2696361999999999,-0.6776804,0.36275253,0.5122682,-0.33491084,-0.5078763,-0.38036144,0.33972988,0.11584042,0.08449594,0.55447894,0.7204520000000001,1.2149044,0.49376786,0.04248232,-0.3906515,0.034564935,0.13182275,-0.8328134,0.10303017,0.2912128,0.016043479,0.15684575
USF23P23V,-0.39562359999999996,-0.40751170000000003,0.32158107,0.9328009,0.14078626,-1.6593558000000002,-1.140675,1.1816398000000001,0.9458508,-0.48832998,-0.83080065,-0.9797030000000001,0.5751556,-0.046653703,0.0022242110000000002,-0.053499005999999995,-0.23237275,0.20689885,-0.34936540000000005,-0.20338620000000002,-0.007146927,-0.81861615,0.8885948,-0.6862676999999999,-0.026418148,-0.10015794,-0.30020338,-0.7833667,-0.27606767,-0.7336334,0.13216391,1.0334517,0.4716803,-0.28094995,-0.7530163000000001,0.45365348,-0.9554185,-0.36683014,0.4685322,-0.96794087,0.38535494,0.6247149000000001,0.0379245,1.3786185,-0.31516716,0.9274505999999999,0.6459999999999999,-1.8767383999999998,0.17888395,-0.6062177,-0.10488852,0.1853955,-0.35349363,0.21145019,0.87945056,-0.9810021000000001,0.26082265,0.19469158,-0.043260064,0.3551934,-1.226537,-0.9897775,0.041921765,-0.055046406
USUNN80R4,-0.78477365,0.8981941999999999,-0.06488655,0.24216698,0.93618625,-0.2870499,-0.33660161,-0.67997426,-0.6508086999999999,-0.48201400000000005,0.4913263,0.7322253000000001,-0.4892194,-0.8206183000000001,-0.2927828,-0.20881382,-1.2858881000000002,-0.5572785,-0.6939211999999999,0.25343764,-0.25856635,-1.1083862,0.54621613,-0.14703669,0.13561022,0.16903856,-0.293365,-0.43638164,-0.052649535,-0.554608,0.46375135,1.1184895000000001,1.5037193000000002,0.10477060000000002,-0.1506664,-0.19756459,-0.7649919,0.6088427,-0.40977606,-0.19089569,0.3085895,-0.815308,0.07872784,0.5368284999999999,-0.15364678,-0.04482752,0.5292256,-1.065397,0.10730706,-0.3288089,0.6254416,-0.10123413,0.15228786,-0.46385533,0.62624353,-0.5205586,1.1589530000000001,-0.28531447,-0.19196284,-0.043076906,1.0101593,-0.90787613,-0.8070421,0.112478286
USSGKGY2Z,-0.07542444,-0.13656828,-0.02348284,0.4462701,-0.13017204,-0.40298656,0.54106313,0.7692855,0.54298145,0.2924222,0.057326164000000006,-0.53856766,-0.53495145,0.8609572,0.9270918,-0.9229341,0.50243044,-0.5082827999999999,-0.00972356,1.8468966,-0.05321135,-0.1525059,1.2129316,1.5087166,0.13365443,-0.1692425,-0.48348218,-1.0052634,0.6627704000000001,0.17434481,0.3943776,0.25197512,-1.0240658999999999,1.5939139999999998,-0.09255271400000001,0.5215307,-0.63300705,-0.22614442,0.58878434,0.6528301,-0.5570824000000001,1.1088655,-0.3786961,-0.43998107,-0.16063203,0.8289755999999999,-0.20835204,0.27764815,0.4341692,-0.5696035,-1.0144767,0.10745147599999999,0.3216795,0.40458274,-0.60173535,0.7473174,1.6499702,-1.1208864,0.35244384,0.1208118,-0.56200004,-0.47729778,-0.20302281,-0.15691796
USGAC9WD7,0.26011458,1.1222541000000001,-0.03679775,0.17521729999999996,-0.94378406,0.25477988,0.41298363,-0.2925546,0.27851042,0.23816961,0.56025344,-0.73740304,-1.5255557,-0.15299352,-0.32526857,-0.23470262,0.5001947,0.13063367,1.116731,-0.19506064,0.41324967,-0.6281451,-0.12436597,1.9501680000000001,-1.4965096000000002,0.16536818,-0.5546353,-0.009893284,0.90796816,0.20379883,-1.2494296,0.24287497,0.84652126,-0.30018967,0.10283624,0.25067034,1.1138997,0.6315261999999999,-0.6803838000000001,-0.5645851,-0.2692262,-0.25493289999999996,-0.1423385,-0.29304478,0.69113547,-0.20899275,-0.12997930000000002,-0.8970603000000001,-1.1698728999999999,-0.09347619,-0.45961723,-0.6802307,0.6856836,-0.48843816,-0.0023263332,0.47572157,1.5054227,0.33293682,0.8124638000000001,0.83782506,0.6548354999999999,0.30894163,-1.3286402,-0.12717652
USUNGLN0N,-0.16298178,-0.57706445,0.033871822,-0.7592108,-0.92181486,-0.5890168,-0.4681037,0.6583081999999999,0.65294284,-0.5771456,-0.39888388,-0.95004106,0.05649037,-0.058717437000000004,-0.6927064,-1.1230793,-0.09094503,0.21748488,-0.7367564999999999,0.50924534,0.8510323000000001,0.33892164,-0.27629498,-0.40250890000000006,0.48622304,0.05748998,-0.0071338248,-1.241678,-0.061956167,-1.211401,0.91133624,-0.42817932,0.055893987,0.14176542,0.15039124,-1.1104652,-0.6561134,-0.44731940000000003,0.45207575,-0.06609082,-0.17994031,-0.6821174,0.45542250000000006,-0.10168542,-0.054340277,0.5342671999999999,-1.0210274,0.66971445,0.15340745,0.040497492999999996,-0.7469634,-0.62379086,1.4271338,-0.75048316,0.18764377,0.07975618,-0.22679956,-0.56918687,-0.059095897,0.41849157,-0.47443503,1.2789925,1.2569318999999999,0.8984015
USSGSQ7QV,0.03238174,0.5120292000000001,-1.0022187,1.3372228000000002,-1.1861538,0.09188419,-1.1613958,1.0264322,0.048154685999999995,-0.18767816,0.22977203,-0.22466882,0.83018553,-0.07574489,0.28691778,-0.19115922,0.06682316,0.45237148,0.21556626,-0.08888205,0.36987793,0.46944496,0.48081043,-0.6177864000000001,-1.3244897,-0.14424418,0.085263275,-0.41945875,0.025552789,0.15714505,0.48618245,-0.33920017,-0.03715586,-0.99859524,0.43731758,-0.16315982,0.46462864,-0.23259658,0.5544534000000001,0.21910167,-0.86096555,-0.53172,-0.12415643,0.10729226,-0.30250677,0.7797588000000001,0.030559017999999997,0.08884615,-0.20119211,0.54873604,1.748287,0.19380723,0.509501,0.4539429,-0.20862114,-0.10922639999999999,0.72847867,-0.3357564,0.28439078,-1.3776628,-0.10997251400000001,0.5924649000000001,1.5158374,-0.28148496
USSGE8YGG,0.16275848,0.2718458,0.32468959999999997,0.52054006,0.517741,-0.5777100000000001,-0.42972609999999994,-0.34600338,0.27699840000000003,0.055470075,0.079121366,-0.22965108,-0.15525697,-0.9062456,-0.57524735,-0.16655359,0.03207405,0.5109752000000001,-0.55819947,0.9019014000000001,-0.4283291,0.23136611,-0.03660028,0.28880490000000003,1.0952077,-0.016236778,-0.15485752,-1.1097581,0.51256037,-0.43761563,-0.668786,-0.54381686,0.41146540000000004,1.693311,0.24876900000000002,0.2851937,-1.1657312,-0.21975078,-0.21417753,0.55010104,0.44040403,-0.6288903,-0.45091328,-0.23948853,-0.49645495,0.32389298,0.5184825,0.23679323,0.35504428,0.62206113,-0.3317866,0.43006469999999997,0.0010937117999999999,0.31419912,-0.13695225,0.37106007,0.7282384,-0.63066554,-0.34391716,-0.5338555,-0.29816509999999996,-0.029776694,-0.8552273000000001,0.7221953000000001
USDMM5LQ2,0.68323207,0.53871024,1.1994274999999999,-1.4302883,-1.1309258999999998,0.7290772,-0.25688866,-0.06700735,-0.8120029999999999,0.32928303,0.20094927,-2.099863,0.37478268,-0.50401324,-0.08811953,0.076792866,0.755471,-0.10686116,-0.17278625,-0.36679512,-0.30045229999999995,-0.47995420000000005,1.0518386,-0.028324997,1.7125785,-0.27540654,0.19327679999999997,-1.5119639999999999,-0.17455117,-0.04728001,1.0996583999999998,-0.6042664000000001,0.1579087,0.03166419,0.42160487,0.20596856,0.15195967,0.1884664,-0.600873,0.91090083,-1.5341536,0.77501404,0.9813757,0.5766564000000001,-1.0536462,-1.6881223,0.5433975999999999,0.28834570000000004,-0.021367717999999997,0.24881637,0.4087628,0.78744143,1.2600706,0.0011652326,-0.26938897,-0.03666539,1.1145525,0.50480205,0.9152903,0.6902244000000001,0.2625093,-0.81662077,-0.37919050000000004,0.40459505
USDNU94JE,1.9776653000000002,0.027252807999999996,0.5931706999999999,0.9033709999999999,0.20064695,1.1772115,-0.12463039,-0.14309475,-0.81035703,1.2596426,-0.5937574999999999,0.055515245,0.22149798,-0.6324460999999999,0.59042597,-0.06636888,0.77082735,-0.30591640000000003,0.10489289999999998,-0.09629682,0.62855124,0.34255093,-0.7990043000000001,-0.75542146,0.09821365,0.13808979999999998,0.44053674,-0.95797193,-0.48899013,0.026699582000000003,0.16757564,-0.43548214,0.070169814,-0.2283163,0.8246007,-0.19914891,-0.113353655,-0.19938820000000002,0.25037342,0.655077,-1.2636053999999999,0.75353354,-1.3853624,0.18194892,0.062232073,-0.79916257,-0.79612565,0.5700298,0.03602289,0.5254665,-0.6575828,0.21845244,0.47500312,0.268885,-0.31985575,-1.4693276000000002,0.14820124,0.67370254,0.38932914,-0.75638705,0.64128536,-1.2093596000000002,1.1421753000000001,0.6557563
USUNGM5D4,-0.52693754,-0.25064728,0.669284,0.027060976,0.71226525,0.32558307,-0.095790885,-1.2593865,0.19767083,0.16590938,-0.34475553,0.018714935,-0.16656199,-0.38112655,0.38389888,0.113668256,0.8514009,-0.7369014,-0.49052253,0.10071530000000001,0.015423082,0.2017805,0.524593,-0.055019874,0.49816963,0.13775539999999997,-0.030685721000000003,0.5328309,0.60744923,-0.014916317,0.0665572,0.10398613,0.40869987,0.5689299,-0.7041116999999999,0.08886863,-0.7294963000000001,-0.18753181,-0.39302376,-0.067396685,-0.44659454,0.29076162,-0.07060142,-0.22325149,0.22369426,0.24465601,0.22666384,0.6249995,0.46042067,-0.18873864,0.49976337,-0.027792037000000002,0.66328835,0.7325136,0.48967385,0.20461679,0.85736126,0.27246755,0.7499479,-0.03851359,0.111702375,-0.4269576,0.27553114,0.10870149
USF2N562X,0.21040599,-1.0350176,0.7144172,0.95008874,-0.35034847,0.7447279,-0.66696185,0.02081977,0.15601579999999998,1.1936513000000002,0.13766405,-0.6339795,-0.17023338,-0.13534737,0.54975206,-0.33901682,0.8527534999999999,0.005798898,0.41667774,0.030703694,-0.055868294000000006,0.7819436,0.002558265,0.64159095,0.040564578,0.86482215,0.4843767,-2.0558176,0.8475655999999999,0.37670287,-0.418181,-0.19143523,0.54307055,-0.12724425,-0.56730485,0.5834771,0.8848669,0.35778993,0.7687989000000001,-0.6233769,-0.0032521577,0.7314586,-0.95757145,0.30196404,-0.080486044,0.12746295,0.5192398,-0.42288446,-1.0707,-0.18009603,0.75893444,-0.6011013000000001,-0.42625076,-0.24279878,1.2146966000000001,-0.04039294,1.1825951000000001,0.21993402,-0.35819270000000003,-0.9487754999999999,-0.21365553,-0.5897509,-1.1039578,0.6127882
USUNC7A5C,0.2561775,-0.60557544,0.7043858000000001,0.1893342,-1.0313236,0.22369926,-0.36178792,-0.35501465,-0.068527244,0.32337627,-0.29183882,-0.8481277,-0.014910311,-0.49834958,0.26005533,-0.98838353,0.2982498,1.2815186,1.5019802,-0.7322948,0.46027538,-0.16882467,-0.18276034,0.29778150000000003,-1.2923332,0.93084043,0.7546574,0.0016980731,0.88850623,0.41605884,-0.6164149999999999,0.020314297,-0.5347964,-0.76754445,-0.8449257,-0.43022403,0.9486094999999999,0.18669678,-0.21630820000000003,-1.1247486999999998,-1.1058267,-0.40707654,-0.40304375,-0.14494722,0.9348511,-0.67671764,1.1960142,0.70977056,-0.3045637,-0.16442128,-0.20779268,0.81978387,0.99053305,-0.2620519,-0.51069885,0.61386824,1.1196728,0.4207436,-0.1026698,0.44731915,0.4913613,-0.08047013,-0.028305471000000002,-0.08962545
USF2TUSEP,0.033099245,0.20949556,0.54701287,0.9370084000000001,1.5054092,-0.1277941,-0.702438,0.6651815,-0.23685928,0.10018305,0.1413232,1.8435322,0.13936824,0.43108326,1.5562176,-0.6185801999999999,0.17842329,-0.08449515,-0.46724325,-0.63852936,-1.7948047999999999,-1.1112243,1.6993395,1.4285383999999999,-0.59419024,-0.05256662,-1.30985,-0.34919003,1.1601659,0.081544235,-0.23828463,-1.0820982,0.3587167,-0.28596459999999996,0.36896977,-0.36650747,0.7533917,0.5022809,-0.2548626,0.13956125,0.034666445,0.818705,-1.6756813999999998,-0.7336228,-0.13240454,-0.0052839834,0.17118306,-0.09294053,-0.7756491999999999,-1.1991665,-1.0475199,-0.31644952,0.12919724,-0.46610379999999996,-0.029150236,0.86747336,0.36427656,0.038122598,-0.11079081,-0.5480739,-0.29650953,-1.2276636,-1.4012114,-0.12530276
USB5VHPL3,0.7809465999999999,0.5087056999999999,-0.46249455,1.6165326999999998,0.7140661,1.3183774,0.6311399999999999,-0.37547746,-0.5768266,1.455254,1.5241646999999998,0.53724056,0.40465757,0.21654315,-0.35525995,0.34486234,-0.08021832,-0.29763043,-0.7579244,-0.08624839999999999,-0.95233786,0.64935637,-1.0909147,-0.7483081,0.4381999,0.12705238,1.3719562,-1.592643,1.1525558,-0.31961423,0.30978718,-1.2996403,-0.15399393,2.2481432,0.47205347,0.8284841000000001,2.412577,0.21874122,0.113507435,-0.29437497,1.326263,0.79599845,-1.0345905,0.32482105,0.10954046,-1.1910561000000002,-0.13116445,0.32290694,0.46664625,-0.40909258,0.31639248,-0.83572316,-1.1237082,0.6086408,1.6393366000000003,-0.72664624,-0.10024759,-0.3916519,-0.69612986,-1.4080876,-0.9600690999999999,-0.36944646,-1.139879,1.1553171
USDNUAYRY,0.6376076999999999,0.45823002,-0.3316881,0.2279812,0.15675989999999998,-0.0065847556000000005,0.1766564,0.2747637,0.575837,-0.30454376,1.4006076,-0.10783122,0.0049330913,0.566674,0.1638711,0.70676833,-0.93415844,1.2347335,0.7023047,0.30652097,0.3862762,0.35751593,0.09097169,-0.59158295,0.50093824,0.5535778,0.7297984000000001,-0.69131947,-0.19994546,-0.62971246,-0.33839145,1.0498106000000003,1.2240571000000002,0.21850340000000001,-0.95529103,-0.48075148,-0.22573456,-0.009535618000000001,-0.7189823000000001,-1.0359995000000002,-0.15323271,-0.36656272,-0.19035959,-0.2678855,-1.1095341,-0.7094019,-0.13400501,-1.1201063,0.051620252,-0.5465938,1.1618698,-0.65161693,0.14083287,1.0418748,1.1384094,-1.0666138,-0.23052743,-0.9339559000000001,-0.16484512,1.3615268,0.050652314000000004,-0.67110056,-0.83742666,-0.007635075600000001
USSGE73A4,-0.36169058,0.7771899,-0.28941756,0.13432206,-0.8105344,-0.51889735,-0.49885634,0.017330147,0.34250408,-0.7740138000000001,0.41341463,-0.65113574,0.4340339,0.10794766,-0.15737683,0.14511512,-0.5803438,-0.059728235,-0.109507605,-0.85194063,-0.13229154,1.425162,0.068061896,-1.1420693000000002,-0.22247301,-0.064473346,0.10156764,-0.25634167,0.022957062,-0.14602846,0.645038,-0.02162626,-0.06910639,-1.0133263000000001,-0.38398499999999997,-0.5640837,0.42256075,-0.050870585999999995,-0.65267104,-0.67228043,0.18509366,-1.5565293,0.23854004,-0.43754079999999995,-0.13967787,0.3705005,-0.027279032,0.6921267,0.12874743,0.70790726,1.8628721999999998,-0.21574852,0.56675464,0.670805,0.48402482,0.5400977,-0.1920209,-0.46324468,0.71430457,0.33321843,-0.5225784000000001,1.082247,0.06749329,-0.26665404
USGAKKEBB,0.16419992,-0.21531159,-0.8049111999999999,1.1033053,0.08659156400000001,-0.022729832999999998,-0.20593344,0.9024749,-0.37358969999999997,0.44772312,-0.26944205,-0.8146121999999999,-0.33647388,-0.41119880000000003,-0.060320668,0.45875889999999997,-0.8687132,-0.34653923,0.045203045,0.18199308,-1.6353968,0.53499246,0.50676256,0.3268508,0.5056746,-0.46367884,-1.0796487,0.9763414,-0.35874742,-0.69177616,0.47026056,0.13562973,-0.674455,-0.11811065,0.22527519,0.3473466,1.477827,0.48689047,0.17721756,1.3555253,-0.53336763,0.7039473,0.98763764,0.090991385,1.6253003000000001,-0.23120773,-0.7668286999999999,-1.5599256000000001,0.9465763,0.5480744000000001,-0.44266707,-0.37812045,0.15122397,1.5624669,0.68728244,-0.44316447,0.23247939999999997,-0.5304979999999999,0.45748386,-1.7802335999999999,0.7426948,-0.42783934,0.32858104,0.5338553
USSGSSABX,0.19240113,-0.7892515,-0.07378411,0.7743169,-0.09629911,-0.10784146,-0.9073072,-0.97935563,-0.027160568,1.4629649,0.250986,-0.17159584,-1.0346638000000001,0.52126515,0.88012016,0.8254007,-0.48325828,-0.9372704,0.4573902,1.5029668,0.61440545,-0.3608254,-0.8215511999999999,-0.04286535,-0.0014480223,-0.3054827,0.11854278,1.3408185,0.26141846,-0.9075915999999999,0.103845954,0.23679915,-0.61918974,1.5092143999999998,1.241284,1.2965753,0.09807656,0.017373733,-0.7889871,0.5960215999999999,0.67393535,-0.8353862,-0.7688829,0.6443466999999999,0.8807403,0.72237194,-0.39171055,0.34519526,2.0264664,-0.0111590205,-0.8797700999999999,-0.05349573,-1.4151446,0.64619136,0.42511052,1.1899520000000001,1.0282950000000002,-0.3097477,0.3373897,-0.4988924,-0.41737857,-0.7247161,0.42057627,0.15774171
USSGKHV45,1.6447405,1.0485674,-1.2337375,0.20721424,1.1302097,-0.17297122,0.32435355,-0.084768265,-0.0857655,0.34950766,-0.32668918,-0.25782388,-0.30307415,-0.041698936,0.31292567,-0.52109075,0.57673043,0.9750235999999999,1.2597691,-0.6799436,0.42727676,-0.28144628,-0.8368124,-0.35862204,0.14117758,0.21334952,-0.015317808999999998,0.631005,0.50801164,-0.26798195,-0.606151,-0.4771657999999999,-1.1058056,-0.37345198,0.14346854,-0.3047479,0.008044813,-0.32295302,0.3155132,0.08367823,-0.34207723,1.0890084999999998,0.45278797,-0.68030906,0.3406519,-0.29825598,-0.24928318,0.40007082,0.64778584,0.1580943,0.50465167,1.2382898,0.37671927,-1.199592,-0.91507506,1.3776237,0.6132167,-0.36503503,-0.7786502,1.4033283,-0.13118854,-1.1410595,0.011836662,0.25713378
USLACKBOT,-1.0172591999999998,-0.7389013000000001,-0.08096783,-0.35736516,0.41413900000000003,0.06609488,0.6205719,0.88288194,-0.35300595,1.0707783000000002,-0.87986374,-0.16682132,0.37072086,-1.3667346000000002,-0.24833068,0.6309653000000001,0.39246312,1.0437806,-0.36601552,-0.34884483,0.7246518,0.26059955,-1.6119235,-0.4566459,-0.24154986,0.97846985,-0.19020654,-1.0991441000000002,0.25675008,-1.2685011999999998,0.061980497,-0.21747170000000002,-0.13352276,0.68095964,-1.3824638,0.25531498,-0.13361439,0.20287204,-0.6491973000000001,0.19126816,0.21640652,0.8654944999999999,-0.48437512,-0.9457081,0.3212072,-1.1049275,-0.45821035,-0.23784596,-0.36048704,0.5844524999999999,-0.2032025,-0.60782635,0.33671942,-0.53822297,-0.14692968,0.22739923,0.85808855,0.18924072,-0.8594166999999999,0.28921735,1.3323667,-0.5706654000000001,-0.07737681,-0.9935393
USGACARGR,1.9820919999999997,0.7085229999999999,-0.14505944,-0.6729430999999999,0.6338808000000001,0.42915004,0.5139077999999999,-1.3398757,-0.5692438,-0.2759449,-0.41972807,-0.64726835,-0.5911611,-0.70155793,-0.47059482,-0.76852053,1.1357116000000003,1.4911294,1.3059173000000002,-1.2286443,-0.42757058,-1.4539897,-0.39507344,0.6751415,-0.97514635,0.39379373,-1.6272507999999999,-0.42350623,-0.8799114,0.17915879,-2.4727685,0.5391083999999999,-0.16515487,-0.6464611,0.98372054,-0.32127282,1.1760083000000001,0.6347166,0.48996660000000003,1.9757133999999998,-0.62907887,0.37166908,-0.5227621,-1.1930273,0.17256970000000002,1.0188582,-0.7021231,0.507838,-1.3450556,-0.5391959,-0.30299821,-0.29064932,-0.96104217,-0.38385199999999997,-1.0629621999999999,-0.37195224,0.7091616,-0.055950812999999995,0.90878284,-0.22377427,0.5611975,-1.3822496000000002,0.34707737,1.3961663999999998
USUCC06MV,-0.44178107,-1.2095976000000002,-0.10339869,-0.26210067,-1.7533077000000001,0.46614307,0.37791407,1.5964136999999998,0.0061205871999999995,-0.79836285,0.5797728,-0.72581685,-0.27492556,0.81749505,0.5693762,0.60109806,0.14082024,0.32463917,-0.06204703,-0.12633917,0.70374453,-0.8896497999999999,1.6055756,-1.5697079,0.33006454,0.4286509,-0.38805407,-0.82083064,-0.14634776,0.41809657,0.119116634,1.8321302,-0.04076411,-0.34162924,-0.22830886,-0.01126544,-0.27098940000000005,0.03735809,-0.20438270000000003,-0.60262525,-1.2299331,1.0749298,1.0220349,0.7702784,-2.0483036,-1.639761,-0.110735625,-0.1094827,0.01911533,-0.637474,-0.20258537,-0.08194308,0.5455751,1.5817358,-0.6694677,0.41457492,0.82911927,0.4494805,0.044154827,0.97063476,-0.5874349,-0.795616,0.38467336,-0.54905456
USSGE53PA,-1.0712517,-0.06561141,-0.30031615,0.46016270000000004,-1.2639704,-0.112340994,1.3879926999999999,-0.009844474,-0.01387646,-0.9743735,1.3661444999999999,-0.48617864,-1.3537928,1.1216229,0.6148380999999999,0.28693232,-0.43547863,0.72512233,0.18022561,-0.5732849,0.47332805,0.45261407,1.4514836000000002,-0.8811525,-0.8636125,0.82486725,1.0014974,1.2482066,0.3095631,-0.03800674,0.116857976,0.85271066,0.5173287999999999,-0.16721202,-1.0431191,-0.81534195,1.5781851,0.08410396,-0.48104593,-0.5676372,0.09351054,-1.0940216,-0.06940609,1.1122670000000001,0.073446564,0.031929333,-0.38739243,0.039508499999999995,-0.42290202,-0.9995761999999999,0.8148459,-0.87951756,0.8776197,0.83485883,-0.23898031,0.78477997,1.1024053999999999,-0.38435724,-0.37283352,-0.38528895,0.018173916000000002,-0.3146199,0.7004574,0.15894607
USSGH3Y0G,-0.9677969000000001,0.12062069999999998,1.604892,0.6916278,0.57825667,0.9250712,0.48015519999999995,-0.16529901,0.7534193,-1.3204486,-2.1091852,-1.0257610000000001,0.8719388000000001,1.6807181,-0.71011794,0.64502937,1.2460723,-0.49544979999999994,-1.3682294,-0.29121023,0.7526899,-0.72560394,-0.18213817,-0.2522544,0.4935454000000001,1.098236,-0.50019944,0.3707066,-0.20350018,-0.21886827,-0.560968,-1.6905599999999998,-0.13350527,-0.69872606,-0.12584288,-0.64952224,-0.6223919,-0.7905198,-0.15527578,1.1604581,0.8423765,0.1549564,0.6388893,1.0202446,-0.31553072,0.33900422,0.28437558,-1.7090394,1.2874198000000001,0.12589334,0.46014875,0.8807618,1.6067726999999998,0.6624005000000001,2.4787304,0.089665435,-0.27330086,1.0406845999999998,2.3716242000000003,0.07160839,-0.19225508,-0.14573912,-1.4356921999999999,-0.41864282
USF2R461Z,-0.09364153,0.24539828,0.6135598000000001,0.78225416,-0.012478271,0.531879,-1.3171618999999999,0.27542847,0.68907976,1.1676499,-0.16053988,0.21269652,0.25144708,-0.8903135,0.86480176,0.031219445,0.8004819000000001,0.41163272,0.007336800500000001,0.8044880999999999,0.92546105,0.24014226,-0.27982490000000004,-0.08080034,0.16424792,-1.2077911,0.42261980000000005,-0.024904437,0.30682403,-0.713737,0.38622376,0.36531496,0.40379602,0.96963793,1.2710217,0.20010325,0.59497494,-0.61564195,0.34294325,-0.43148082,-0.7106574000000001,-1.1913938999999998,-0.66363955,-0.35701653,0.24966511,-0.5116828,-0.99096936,0.11896858,0.54710895,-0.47252116,0.5776886999999999,0.23536626,0.30242909999999995,0.40338922,-0.28785384,0.10954536,0.7573721999999999,-0.40366492,0.40831214,-0.04421942,0.24952288,-0.7038384,-0.20587885,0.10113378
UTD2737GU,-0.66169775,-0.05261363,-0.99777526,1.474461,1.2660129999999998,-1.0459041999999998,0.7169134,0.6955281,-0.44098616,0.18687876,-1.0109143,-0.010060425,-0.20656950000000002,-1.2960883,-2.1471741,1.4197944,0.19648486,0.32803562,-0.9639349,0.41829386,-1.0643316999999999,1.5347605,-1.4715447,-0.15031421,1.684232,0.464237,-0.89800745,-0.37570003,0.3869165,0.6227496,1.7560814999999999,1.7356678,0.16898984,-1.5039333000000001,-0.038116485,1.165437,1.1813103,1.6257616000000001,0.14769982,0.8432120999999999,-0.15615754,1.7334125,1.4945959,-1.0377766,3.1695201,-1.3955063,-0.9732328000000001,-1.2858452,0.7392340999999999,0.28793287,-0.18129672,0.074507445,1.0433849,0.9134039,-0.049734198,0.029849896,-1.0349424,-1.3027393999999999,0.08913578,-0.32385916,0.47364882,0.40243396,0.95358604,-1.3096855
USGANF4QH,0.62971574,1.6801878000000001,-0.32794252,0.12537855,0.3202177,0.039868608,-0.099896416,0.9867290999999999,1.7716933000000001,0.5701248000000001,0.29830655,1.3650662,1.6376479,-1.0444407,1.3941795,1.550331,-0.12461838,0.9741804000000001,-1.6059816999999998,-1.7954167,0.14553139999999998,-1.2149628000000001,-0.29153106,0.093857825,-0.2040592,-1.0146679,0.40514854,-0.73144376,-0.13150011,-1.3885996,0.9363174000000001,-0.69438213,0.82537055,1.7174506,-0.28324527,-0.3614545,0.11739064,-0.19506797,-0.019328287,-0.20436488,0.27394247,-1.1449049,-1.0546631000000002,-1.4526248,-0.6084155,-0.43243465,-0.30832475,-1.2084315,-0.46883976,-1.0208236,0.5463519,-0.7293459,-0.41744843,1.5782633999999998,1.6195114,-0.3456259,0.12478704,-0.28683537,-0.75542724,0.11668419,-0.6330313,-1.8720642,-0.5098176999999999,-0.68588895
U0108SMQ0DQ,0.48448288,2.0310593,0.34425625,0.36859164,-0.67203,-0.32833335,-0.61857474,0.23079103,0.39027926,0.28771806,0.9069187,-0.8977999,0.8126681,-0.42067619999999994,0.23110582,0.40540790000000004,0.015694475,1.0623912,-0.35546464,-0.55952805,-0.3094892,-0.59016365,-0.9724038,0.23569426,0.73062885,-2.0689113,-1.0496702,-0.8933337,-1.5087373,0.05115259,2.4429993999999997,-0.71896994,1.5557691,1.3856273000000001,0.8127513000000001,-0.5603604999999999,1.4607983999999998,-0.5570009,0.5238693,-0.31606492,0.769784,-0.5907022,-1.6248213,0.83537185,0.012609133500000001,0.297537,-1.0688818000000002,0.84837055,-0.93037456,1.1868436000000002,2.7223453999999996,0.32845446,0.47150576,2.2247195,-0.26416209999999996,0.26817670000000005,0.46117204,-0.4409522,-0.2970935,1.0285485,-0.5901951999999999,1.1726166,-0.49706426,-0.26245522
US1UQSGER,-1.2374188999999998,-0.26773554,-0.3186097,-1.8653113999999997,-0.64782876,1.3508577,-0.5221892,0.7697041,0.55475265,2.2613982999999998,0.06873728,0.74788654,0.21880393,-0.58994114,0.32168886,-0.6790875,-0.084504075,0.15504576,-1.2663615,-0.47116709999999995,0.5314310999999999,-0.8701668,-0.3419618,1.456595,-3.1579106,-0.14112337,0.88489664,-1.2295483,0.5220487,0.11019934,-0.44873409999999997,0.5736967,-2.0991712000000002,0.6980048000000001,-1.0086941999999999,0.54383045,0.17491266,1.2080398,0.91670233,7.345564e-05,-0.034508936000000004,0.16440438,-0.26556942,0.74480295,-0.0067579825,0.53535527,0.3072518,1.6456096999999998,0.74754125,1.8909447,1.0879159,-1.3327323999999998,-0.4367875,0.7940937,1.3284948,1.086571,0.43294838,0.35958508,-1.4750988,0.2495436,0.032942437000000005,-0.005282649,-1.2606401000000003,-0.9437289000000001
UTSGV1PC1,-0.31473634,0.5938366999999999,0.35201833,0.009712276,-0.1970394,0.13583864,0.6928234999999999,0.23061833,-0.28347597,-0.7642125,-0.7947717,-1.1936566000000002,0.29661554,0.64165556,0.12102401,0.1062085,-0.72035193,-1.8029436999999997,0.7571874,-0.73257214,1.4817619,0.92850894,0.41642904,-0.2339879,-0.52895296,-0.3014393,-1.5354713,0.41155112,-0.40674770000000005,0.29846713,-0.90810466,0.42857176,-2.5097737,-1.4845157,0.07812065,-0.26389164,0.18117101,-0.20715937,-0.32262632,0.71791637,0.86817473,-1.0931466,0.35395852,-0.71019304,0.74638134,-0.08000366,-0.7406358000000001,-0.7178644000000001,1.1601487,2.6285803,0.023000026,0.3391296,0.63747823,-0.43804216,0.99280846,0.047024882999999996,-0.8866409,-0.33633694,1.3216898000000001,0.37761018,-0.47898465,-0.1044339,-2.4998364,0.20750718
USGACAL2D,0.48040974,1.0296336,-1.133173,0.50570875,0.59258896,-0.6453545,-2.2321115000000002,0.9419859,0.19840667,0.43813682,-0.20769547,-0.36927426,-0.44087446,0.638516,0.000105814426,-1.1588143,0.77417713,-0.052941296,0.8941703999999999,-0.68971854,-0.60450625,0.6070460999999999,0.82268584,0.316573,-0.87544745,0.64996207,0.7068159,0.46030003,0.49738684,-1.0782312,-0.09149556,-0.47475280000000003,0.34932923,-0.7188903,0.16520873,0.6996545999999999,-0.37229457,-0.6402073,-0.26132393,1.0826254,0.095698245,1.1716852,0.32602468,0.9110732,0.6085538,-0.22455642,-0.7607265000000001,-1.1652801000000002,0.5952900999999999,-0.31631312,0.6879963000000001,1.0785978,-0.15119654,-1.9451426,-1.6251574,1.6754639,0.34869918,1.4570338,-0.5431683,1.4905239,-0.11579977,-0.8104496999999999,-0.49258342,-0.09888384
USUBPNXSB,0.53556156,-0.03228182,-0.31232402,0.29290077,-1.2343771000000001,-0.08108787,-0.17614849,-1.7239582999999998,-0.4112696,-0.6750567,-0.45423234,-0.8367530000000001,-0.045772534000000004,-0.76052177,0.15525459,0.5382579000000001,1.2858318000000002,0.67008793,1.8226745,-1.0255449,0.59029424,-0.6014834,-1.6811041000000002,1.0622392,-1.9122446,1.3330268,-0.80136305,-1.5972975,0.65409184,1.4479183999999998,-2.1704993,-0.16683872,0.28393608,-1.5283068000000002,0.9346527,0.3305442,0.99141884,1.4488,0.88087326,0.21227424,-0.97019684,0.42933694,-1.6879109,-1.2211645,-0.12899524,1.4139228000000001,0.13295592,0.026615331000000002,-0.98331356,-0.095985636,0.29712436,-0.21056032,-0.59547657,-0.27173162,-1.0042973,-0.9403581,0.9015236999999999,0.7505873000000001,1.7085941000000002,-0.7310375,1.0392624,0.5454932,0.28983784,-0.27714685
USDNRGKGA,-0.7745806,-0.87272143,-0.86737764,0.39965665,0.53272164,-0.51177377,0.040829144,-0.93320096,0.7255187,-0.86374813,1.4407036,0.007358911,-0.37619016,0.8951865999999999,0.8598950000000001,0.17422259,0.6332232,-0.77579343,0.6918699,1.656754,0.9107421999999998,0.13812178,1.920993,0.4022166,-0.6482717,0.68547916,0.5732649999999999,0.8209834,-0.07874169,0.005394629000000001,-1.18801,0.10975544,0.77623504,0.56156677,-1.3140068999999999,0.123057,-0.73550856,0.23311462,-0.05720667,0.22768320000000003,-0.25351033,-0.16935745,-0.42641273,-0.20041005,-0.34559184,0.20838451,-0.38910452,0.0748085,-0.13202070000000002,0.92844766,0.58795404,-0.42629966,0.7376378,0.5262543000000001,-0.7462696,-0.54624826,0.24235782,-0.78343767,-0.72115475,0.25679633,-0.16615196,-0.6090021999999999,0.5682583999999999,0.8468001000000001
USDNUBAGJ,0.5318665,-0.6395229,-0.852467,1.371882,-1.0031606,1.4595138,0.47636709999999993,-0.31814268,0.3916771,0.88542366,1.6160177,0.12693393,0.27795166,1.479801,-0.41407029999999995,-0.24781147,0.29725268,-1.243544,0.5643816999999999,0.5783975,0.26293275,-0.9799558,-1.0403106,0.6350496,0.82447815,-0.48968320000000004,0.38323444,0.39928088,-0.18406752,-0.020559301999999998,0.47953576,-1.1957203,-0.011774628,1.1359965,0.06386825,1.0361103999999999,-0.47984746,-0.6536069,-0.37484393,-0.44120252,0.83470476,0.7531005999999999,0.33033112,-0.9308033000000001,0.28628692,0.7045819000000001,0.40244186,0.44292098,0.019368013,-0.63902295,-1.6806356,-0.8711565,-0.8021906999999999,0.88394004,-0.43144209999999994,-0.47293052,0.19868653,-1.3174559,-0.027094845,0.69663405,-0.47064906,0.7057806,-0.011793918,-0.18765189
USF2HPGTV,-0.32890618,-0.2756765,-0.29827943,-0.09294880000000001,0.4126577,-0.72868955,-1.876538,-1.5519311000000002,1.1189797,0.6898293000000001,0.42305937,0.22317606,1.3866783,-0.6037335,-0.6065967,0.09824332599999999,-0.3433364,0.27524033,0.5345916999999999,0.5971138,-1.0237858,0.05174809,0.5557638,-0.9060928,-0.90925366,-0.11887996,0.46723315,0.58792406,0.81363475,0.15266141,-0.37665647,-0.0031953470000000003,-0.37470314,0.7115089,0.3574073,0.63711995,-0.11887774,0.040354043,-1.0983528999999999,-0.43796813,-0.025383389,-1.1029712,-0.14152448,-0.7189409999999999,0.29926926,-0.033839274,1.0379049999999999,1.5605953000000001,1.308306,0.4152715,0.7193425999999999,0.16993387,0.56771946,-0.6339807,0.7829316,-0.3446505,-0.044075076,-0.44004440000000006,0.5285685,-0.66532105,-1.6424081000000001,0.12469347,0.22009613,-0.49775058
UU3FR0CDQ,-0.13914198,-0.6855219,0.16109714,1.2414798,0.48381364,-1.7684113000000001,-0.5104017,1.8659189999999999,0.68888354,-0.0045120064,0.31016356,-0.3138161,0.42762375,0.3000735,0.6674462,-0.21998914,-0.39139559999999995,0.11511059,0.22286117,-0.87059414,-0.41037974,-1.3514135,0.16844325,0.5938974,0.4822697,-1.0822831,-2.3285517999999996,1.230923,-0.3410808,-1.4837488,0.9507136999999999,-0.13098879,0.057794965999999996,-0.91475517,0.6883253,-0.46543103,1.1261028999999998,-0.3376514,0.76026034,-1.2414662,-0.5442043000000001,2.0058281000000004,-1.1165833,0.7911614,0.23045307,-0.16487455,-1.0722167,0.22543709,-0.5219939,0.8917994,0.00041024986000000004,-0.7356779,0.7734018,1.3058857,-0.10480969,-0.25609738,-0.7625459,0.03902412,-0.212023,0.87876326,-0.7103705,0.48506173,-0.48614958,0.61737806
UT7LKHEC8,1.1128165,-1.1087633,-0.42011687,-0.11968347,0.56815916,-1.0675278,-0.8679084999999999,-1.7653751,0.49899694,-0.031003905,0.9073283000000001,0.18031687,-0.7419357,1.683948,-0.89854544,0.35886443,-1.2817364,-1.000779,0.47235623,0.4982144,0.9541439,0.42650253,-0.09385376,0.46126917,-0.37294084,0.8155737,1.8755914,0.8945192,-0.031589437000000005,-1.2457254,0.85065013,0.6109306,1.5504256,-0.92532855,0.9281699000000001,0.87366617,-1.5500953000000002,1.1911156,0.961324,1.0761232,-0.5023045,-0.05595747,0.7602211999999999,-1.7056921999999999,-0.94917095,0.13020697,-0.43774182,-0.9601110999999999,-0.79849535,0.38224226,1.2507685,-1.6514168999999999,0.93593365,0.5491807,0.58023757,-1.0469046999999998,0.24745314,-0.88212097,-0.49449733,0.9044376000000001,0.63948864,-0.6719214,-1.6236329999999999,-0.46197040000000006
USF2N4NRZ,0.25958374,0.5875090999999999,0.38459733,-0.36520929999999996,0.012348622,1.2919457,-0.59565365,0.5244693,-0.8457629999999999,0.46160874,0.39335436,0.75464016,0.28486383,0.43094724,-0.5347622,0.13913138,-0.63337773,-0.97654384,0.057099185999999996,-0.89207447,0.8251475,-0.097022556,0.9041584,-1.0020638000000002,0.25753173,-0.27748024,-0.03839196,-0.3265417,-0.91713834,0.20662777,1.1404126,0.030873211,1.1173735,-1.3662796,-0.004171168,-0.06965786,-0.47810057,0.059759192,-0.07589606,0.5484717,-1.0587122,-0.11397545,-0.5716751,-0.07923119,-0.23418379,-0.22031579999999998,0.7106104999999999,-0.15705699,0.5301577,0.06796783,-0.41719097,0.05222324,0.43956846,-0.5123979000000001,-0.22298609,-0.23382834,0.8831464,-0.05386777,-0.7363778,-1.5146879,1.3142512,0.72537225,1.5827897,0.03992534
USSGH4E0G,0.9791363000000001,-1.1689199,0.66481763,0.62616223,1.5900942,-0.32301334,0.5271283,0.33398965,0.03310556,0.24582957,0.43835667,-0.30924904,-0.0029194783,-0.55521965,-0.47617984,-0.620976,0.11324382599999999,1.3840674,-0.6309861,-1.3240652,0.28655094,-0.47388282,0.62976146,0.5519453000000001,-0.8578834999999999,0.20533262,0.39873898,0.47774926,-0.22328025,0.24002665,-0.48610017,0.5930930999999999,-0.5375661999999999,-0.8373575000000001,-0.18979016,0.15644419,0.013137706,1.0118969999999998,0.9320690999999999,-0.7753336999999999,1.3921938999999999,0.12463579,-0.09787925,-0.62891394,1.0174266,1.5638322,0.18177803,0.3904523,-1.4929173,-1.8191728999999999,-1.5219396,-0.8706263000000001,-0.5971764,-0.53229094,0.30323508,0.46350047,0.42959285,-0.33296612,0.9602062,-1.1060311999999999,-1.261919,-0.8386513000000001,0.43045774,0.79708433
U0117PFTDDZ,-1.140909,0.34425974,-0.39707068,0.36114457,1.2442243999999998,-1.1294688,-1.2760093000000001,0.08495135,0.6767215,-0.25730085,0.9761,0.19530527,1.8021322,1.0567756000000001,0.044092674000000005,-0.7347758000000001,0.46871862,-1.0023203,0.18460196,1.0176489,-0.98255223,0.55901605,-0.34728655,0.45786223,-0.4502494000000001,1.1725076,0.69021726,-0.011272098999999999,-0.31272402,0.9205441999999999,0.016282164,1.2354038,0.83982193,1.4179593000000001,-0.93696165,-0.97268295,-1.1519846000000002,-0.17955327,-0.82915974,0.1378677,-0.5747535,-0.04362503400000001,-0.23899682,0.6290644,-0.34003627,0.060173545,1.5871898000000002,-0.5998420999999999,-0.45037603,0.9638346999999999,1.5991168,0.71030974,-0.55325735,-0.20759872,1.3935517,-1.5537208,0.00832772,-0.08886323,-0.46941453,-0.95520514,-1.6198901,-0.61393535,0.41664702,0.91955346
USSGSRA6R,-0.11031911,2.6218677,0.68349767,-0.34183115,-0.88164765,1.2499818999999999,0.70722145,-0.25057974,0.6018023,-0.39527237,1.7170634999999999,0.3678362,-0.18513665,-0.70281816,-0.09857536,-0.8406283999999999,-1.6106968000000002,1.7014443,-0.14788131,1.8668256999999997,0.031085595,-1.3574188,0.016237205,0.80369467,-1.6501772000000001,-1.0224519,-0.975851,-0.66618603,0.11963299,0.47902155,0.7075296999999999,0.5514104000000001,1.0954704,-0.45136416,-0.07149533,-0.7099983,-0.11093473,0.10302817,-0.49661179999999994,-0.08578132,1.2331028,0.38135013,-1.4167678,1.1390247,0.43490690000000004,0.51688635,-0.95342904,0.116476096,0.06583268,-0.49612087,1.634422,-0.056505393,1.1331488,-0.056685373,1.0750277,-0.5879736999999999,0.13129322,-1.1677049,0.48506707,0.78760844,0.17675002,0.45947006,-0.64633554,-1.9804453000000002
USSG9MSC8,-0.48374093,-0.87282044,0.65601385,0.22875120000000002,-1.4363927,1.0707561,-0.44002295,-0.6927592,0.012302107,0.5370894,-0.48893782,-0.4508335,0.2348123,-1.1793568,0.60698366,-0.12915605,0.9260053,1.3229993999999998,1.6733345000000002,0.20537633,0.69668573,-0.21542606,-0.66821676,0.78150934,-0.85340416,0.9205,-0.12009080000000001,-0.87938505,1.5776777,1.2729065,-1.2953877,0.34986209999999995,0.18137634,-0.7201081,0.36093605,-0.40339264,0.48491383,0.58466905,-0.16491957,-1.604598,-0.72067064,0.18649000000000002,-0.38524884,-0.23871522,0.5061583,-0.5907779000000001,0.12737861,-0.007909763,-0.89164835,0.12735084,0.46709433,-0.09546355,0.90385187,-1.1260475,0.032871608,-0.6060353,0.703047,-0.15349907,0.21567008,0.10015405,0.49514508,-0.28908095,-0.5740727,-1.000211
USSGSQ15K,0.88298404,-1.1684786,0.71893334,0.85341305,0.75573117,-0.66887695,-2.6109707,-0.5203434,-0.17428352,1.6388466,-0.5027674,0.71490943,-1.3345131000000001,0.6481021,0.07038225,0.3917375,0.36105338,-1.1953332,0.5954012,1.6231719999999998,0.8787485,1.0530758,-1.2905383,-0.6145401,-0.84137625,-0.065389454,1.7900311000000002,0.90347797,-0.52846146,-1.9912031000000003,0.79070586,0.19427656,0.9786091999999998,0.16340217,2.4341044,1.276633,-1.005101,-0.11114959,0.27973276,1.3402851,0.14352602,-0.31610915,-1.0565993999999999,-0.19230051,0.11548027400000001,0.09629241,-1.9472721000000002,0.28057054,1.7179894,-0.407428,0.4123732,-0.38953468,-0.15249853,-0.20357275,-0.4487554,0.77510285,0.8915851999999999,1.1035072,0.73472106,0.7339810999999999,0.52670705,-1.7378595000000001,-0.07384663,-1.387541
USSGE7U0Y,-0.41614458,1.1609886999999999,0.012570083999999999,-0.647363,-2.0872464,-1.0949441999999998,0.72849137,-0.2665121,-0.057154205,0.09409978,0.35167682,0.15478489,-0.67084813,-0.5578337,0.33701440000000005,0.29378858,1.5052290000000002,1.4107103,0.17525595,-0.5243569,0.11915292599999999,0.10083249,-1.1224836999999999,-0.46365386,-0.69647825,-0.5753499,-0.41151696,-0.04141115,-0.8916694,1.1929901000000003,-3.3979132000000005,0.8818572,1.316665,1.3834608999999998,1.2644541,0.079030275,0.8730747,1.572981,1.0483028,0.68203294,-1.3166102,-0.12794916,-0.81272185,-0.55793095,-0.032073576,0.36467803,-0.6435137,-0.605441,-0.14760520000000002,-0.7224012,-0.46643355,-0.41859785,0.042542744,-0.7748101,0.0024058382999999997,0.17133243,0.54856795,0.53442514,1.5323601,0.46883413,1.0130905000000001,0.75670254,0.36785758,0.104855046
USS32PGQ4,-0.4242532,-1.1435618,0.135765,0.6570319,-0.29277223,-0.52328616,-0.047814496,0.9580685,0.7051589,-1.0759518999999997,0.36036128,-0.73561025,-0.41644117,0.80021393,-0.42108178,0.26118344,-0.14062697,0.13592681,0.16860488,-0.6847139,0.26439336,0.096736684,-0.08393966,-0.31261724,-0.46705788,0.42020357,0.07543637,-0.08203999,-0.58741856,-0.8870304,0.12664847,1.6186584,0.84390014,-0.24731168,-0.4932798,-0.32007515,-0.2400761,0.16309991,0.5050349000000001,-1.787621,-1.3877627000000001,0.7490713000000001,-0.27194127,1.7057855,0.0678637,-0.1424832,-0.4158402,-0.8751187,0.51518804,-0.07243273,-0.1679774,-0.62741584,0.42898196,1.1397985000000002,0.19839762,-0.75122523,-0.389743,-0.3571607,0.21853545,0.87875277,-0.8099643,-0.5112752,-0.62251174,0.22003722
USSGKGSER,0.59242785,0.5224749,3.3133623999999995,-0.53517425,-0.43469796,-1.7009880000000002,0.36729407,-1.1996428999999997,0.20201263,0.36461475,0.19780563,-2.051302,-0.84556895,-1.7155432000000002,-0.44218493,-0.64295137,0.7500611,-0.5735281,-0.33692008,-0.9947367,-0.34740406,0.5266386,0.38066903,-0.5622184,1.0255723,-0.41037646,0.99375314,0.7742739000000001,1.2020959999999998,0.84553146,1.4885939,-0.17980374,-1.0445348,-0.7285434000000001,-2.0185213,-0.51384664,0.508792,0.11156594,0.19156162,-1.0662673999999999,-0.09048689,0.20992468,0.5218722,-0.255642,0.78370935,0.8826789,1.5080646,1.349732,-1.3660446000000002,0.34648418,1.1067258999999998,0.636079,1.139623,1.2673068,-0.111773126,-0.5129300999999999,1.1532209,1.5349181,0.48912126,1.0608208000000001,0.080302976,-0.86141837,0.5900013000000001,-0.31065208
USSGH4Y8Y,-1.4166952,-0.15013748,0.48295015,-0.89297837,-1.532812,-1.2786216000000001,-0.7392966,0.30650362,0.48117575,0.8397454,0.023920028,0.6846342,0.048162803,-0.57248646,0.27985679999999996,0.21359198,-0.09094374,0.54248184,-0.65268916,-0.15133469,-1.0457207,0.6505938,-0.17935903,-1.1476885000000001,0.558865,-0.89776117,1.1321653999999999,0.8803536,-0.83103204,1.6034712,-1.3494332,0.6090333,0.11040573,-0.22529244,0.56679446,-0.51398176,-0.263361,0.5213147,2.4327363999999996,-0.15804307,0.7284904000000001,1.2158293,0.19677049,0.015536073999999999,-0.0855335,0.6241429000000001,0.42639399999999994,-0.22497225,0.7325691999999999,-0.6573926,-0.38009053,-0.14359155,0.7004653000000001,-0.53862774,0.5292081,-0.024107748999999998,0.36597070000000004,-0.07837955,0.22771363,-0.20973029999999998,0.57067376,1.878612,-0.98250794,-0.051289577
USS2VGULC,1.7745025,0.92513233,-0.8681392,0.6549704000000001,1.1678957,0.051896263,0.22748157,-0.10558811,0.43674093,0.37913892,0.038463164,0.07820987,-0.16814932,-0.83452857,0.41344790000000003,0.31883985,0.03427746,0.8808935,-0.22986573,-0.08497406,-0.59771883,-0.5033912,-0.18262962,-0.33222294,0.23772426,-0.27701834,0.6976019,0.074583285,-0.62572455,0.36375123,0.010423126,-0.45016409999999996,-0.9373883,-0.59595895,0.019501597,-0.6433644000000001,-0.47729874,-0.8070185999999999,0.14284268,0.3153975,-0.38131833,1.7975541000000002,0.50946194,-0.17116112,-0.101030946,-1.3089247,-0.024741136,1.000561,0.49541607,0.6256463000000001,-0.81924176,1.2622681999999998,0.7155991,0.8864869000000001,-0.5200589,-0.36912543,0.90977997,0.32119796,0.1908424,0.40886804,0.32546198,0.3710751,0.3804074,1.0121866
USDNU8PQA,0.06032731,-0.22739403,-0.14205764,0.2608261,-0.020501448000000002,0.35020652,-0.8276288,-0.7409239000000001,1.4768534,0.26341063,0.19701803,0.39994273,-0.36397806,-0.067579344,0.86423725,0.22451517,-0.01797642,-0.47604529999999995,1.4211661,0.72996694,0.25326762,0.225485,0.009089001999999999,-0.7031821999999999,0.25266564,-0.9664773000000001,-0.31448978,1.280537,-1.0123268,0.19351137,-0.51936907,0.41473815,-1.4060925,-0.56330943,0.9330556000000001,-0.13686708,0.6679341,-1.2290117,0.080897585,-0.23235922,0.03433829,-0.76487285,0.19124828,-0.6981576,0.7798776,-0.48952764,-0.6059769,0.82245815,1.8405076,0.40264970000000005,0.29341853,0.42557928,0.57452357,-1.4403882,0.6455983000000001,0.60355455,0.6660616,-0.29356020000000005,-0.15518212,0.33825034,-0.16413479,0.05162033,-1.2198669,-0.41302833
U0116ME47SP,-1.2093916,0.24914634,-0.21484718,1.052011,-0.49143723,-0.23128308,-0.36258647,0.08701755,-1.0756578,-0.5356996,0.22233135,0.20392895,-0.59788495,-0.6029054,-0.38797432,0.24164744,-0.73892915,0.043667125999999994,-1.2277044,0.03388551,-0.65389717,-2.1425245,-0.9612792,-0.22086728,0.16005822,-1.4726231,-0.022440966,-0.27991859999999996,-0.8769434000000002,1.19319,0.7727210999999999,-1.1088394,-0.7817987,1.8804598999999997,-0.99455184,-0.6796761,-1.1042625,0.36053592,1.2594134,1.3878651000000002,-0.13124013,-1.0783553999999997,-1.0836860000000001,0.11207156,1.2412292,0.67288226,-2.2610118,0.16785328,-1.4639454,1.4688193999999999,2.1782074000000002,-0.76313734,0.45634633,0.9972231,-0.27077433,1.0287321,-0.7565196999999999,0.8337704,-1.7193362,1.1360299999999999,0.029852996,0.5994678000000001,-0.5153133,-0.37993985
USF24C7GB,-1.1416848,-0.2951919,2.038137,0.70663714,-0.8344239999999999,-0.094718106,-1.0973396,1.0107102,-0.9325941999999999,0.37902140000000006,-1.2886794,1.6028821000000002,-0.5328246999999999,1.139432,1.0853275,-1.2773609,-0.1659414,2.0371616,1.0725438999999999,-0.44567209999999996,-0.8739578000000001,0.20141499,1.1687561000000002,1.1622031000000002,-0.23843320000000004,0.6823779000000001,-1.3235857,-0.027477982999999997,2.7746654,0.7277351,-1.2379473,-1.4858091,1.2358946000000002,-0.90293807,0.48559916,-0.5885334,1.0157388,1.1795951999999998,-1.6540177,0.8093594,0.036944013,-1.6007692,-1.4942302,-1.1536963,0.08298199,-1.0394698,0.9475285,-0.12030217,-0.32396606,-0.18882996,-1.0728908000000001,-0.29811424,0.47308517,1.3724226000000002,-1.4875563,2.7867203,-0.27723622,-0.4710422,-2.3440034,0.15500498,0.02484189,0.03597863,-0.5504054,-0.11863334
UUG9HD3GQ,1.4386883999999998,-0.22009389,0.020001212,-0.85294133,0.07433492,1.3014088,-0.8083748000000001,-0.40727243,-0.4537174,0.29406893,-0.35256308,-0.24044642,0.12549244,-1.1875374,-1.7651252,-0.11514663,0.7964146,1.1689007,0.35874048,-1.1203046,-0.9941675999999999,-0.57646275,0.7676476,0.24688312,0.34168094,-0.9964748,-2.0322310000000003,1.0576444999999999,-0.8680030999999999,-1.2405169,-1.213435,0.19069411,0.10064878,0.073358305,-0.13246074,-0.88154197,1.1013594,-0.30093136,-0.3323605,1.6791792,-0.6368444000000001,0.47655362,2.043185,-1.5356586,0.11426527,1.9787264,-0.7591420999999999,-0.43543279999999995,-0.021792002,-0.35380954,0.28506020000000004,-1.7961548999999999,-0.04328112,1.9428086,0.68305147,-1.6976944999999999,-1.4686681000000001,-0.7651958999999999,-0.8142272,-0.6358836999999999,0.01773012,-0.69175893,1.7996534,0.12993693
UT51SRKN1,-0.29075024,-0.13454117,-0.45715797,0.23904802,0.06369155,0.25632447,-0.1275373,-1.415078,0.6237026,-0.9219378,0.57644767,-0.16819033,-0.5815134,-0.3896595,0.87530434,1.1442027,0.888117,0.5607435000000001,0.7510863,-0.069595516,-0.58727527,0.52027357,-0.6871271999999999,1.5153577,0.14185442,0.9258267,0.06603110599999999,-0.47225612,0.7519924,1.4185284,-1.625515,0.09575926,0.8742646000000001,-1.0184897,0.53067017,0.08074644,0.17830157,0.16115285,-0.38473815,-0.22127947,0.46650568,0.8716008,-0.34039200000000003,-0.06925289,-0.33714494,0.8220677,-0.44802123,-0.15064923,-0.13841203,0.05809922,0.11807444,-0.020925896,-1.0876905000000001,0.9583558000000001,-1.7432506,-1.4896200000000002,-0.08951452,0.5547384,0.5625051,-0.67406076,1.5100514999999999,1.2537878999999998,-0.047217652,-0.36075902
USS35MN0L,-1.0721197,-0.78375465,-0.1147479,-0.94540775,-0.396356,1.5892608,-0.6727929,-0.39170003,1.4574208,-0.34353894,-1.3082825,0.6299494999999999,1.1793234,-1.3897232,0.994841,2.0057468000000003,0.021346412999999998,0.7868975,-0.75146776,-1.615809,0.26116812,-1.9421816000000003,-0.25098960000000003,-0.16841492,0.11157095,-1.4994111,0.84559065,-0.5403728,0.38523334,1.2508982,1.6732068,-0.018215545,-1.0388378,1.8691944,-0.8398228000000001,-0.18253551,-0.58036506,-0.71140504,2.1214192,0.50483227,-0.43066072,-0.6028762,-1.3844018999999999,-1.751839,1.9416066000000003,-0.03281459,-2.275769,-0.9150997,-1.3424201,-0.71532303,1.4394056,-0.8187968000000001,0.63724405,-0.5333203000000001,0.37412584,0.19669732,0.12048518,-0.11706111599999999,-2.1167486,0.20043665,-0.037366427,-0.47329012,-1.5232961999999999,-1.0376334
USSGPV7M3,-0.6068551,-0.014071739,0.78668785,0.47208310000000003,0.02242996,0.6324358,0.6187081,-0.48701972,0.16933542,-1.0003034,-0.9219702,-0.72634,-0.012234863,0.46204194,-0.1739085,0.71850145,0.14910999,-0.54510933,0.05704662,-0.33091706,0.6300650999999999,0.14701006,0.29828492,-0.09813618,0.11011647,0.23153551,-0.5463680000000001,0.11576735,0.09608568,0.009586403,-1.6901296000000001,-0.12391661,-0.8480370999999999,-0.5997624,0.37760174,-0.44903648,-0.5530559,-0.62297165,-0.98018485,0.22221342,0.25582847,-1.1579745000000001,0.6420140999999999,-0.34594703,0.19689351,-0.6380005999999999,-0.26143795,-0.7883706,0.78015405,0.8137135999999999,0.095138,0.15521139,0.9842917999999999,-0.11486245,1.2803919,0.27426082,-0.13445073,0.03454532,1.8221416000000001,-0.11537697,-0.3406687,0.028220162000000003,-1.9788775,0.16082753
USUNGNANA,-0.8931790999999999,-0.03449453,1.9116380000000002,0.71438444,0.1478347,-0.38369215,1.0951844,0.58528674,-2.1363676,-0.634255,1.1122896999999998,-0.31885690000000005,-0.56205183,-0.9851257999999999,-0.5367846,-0.17237276,0.5462165,0.27874340000000003,0.4390731,-0.44190050000000003,0.5073649,-0.48034558,0.6430628,-0.72168195,0.5792208000000001,0.15326257,1.123156,0.5938906,1.3080623,-0.5499227,-1.1343455,-0.019564353,-0.6749248999999999,-1.4768082,-0.8573341999999998,0.12232287,0.31587750000000003,1.2686845,-0.19469234,-1.7770485,0.36025965,-0.4245662,0.27205009999999996,-0.6851906999999999,0.7715718,0.080841824,0.91062564,1.7416538000000001,-0.7462376000000001,-1.165869,1.5414011,-0.5174036,-0.4762767,-0.019712733,-0.20743531,1.7229273,0.18352275,-0.9524973,0.9676464,0.34221572,-0.14382961,-1.4441382,1.3188561,0.001992496
U0143K3LKPS,-1.2605662,0.17384504,0.23055011,-1.5477226999999998,1.0807751,-0.86366534,-0.7439895999999999,1.3382162,1.4906632,-0.63929784,0.44665128,0.04506375,0.9570284,0.6232154999999999,-1.0868288000000002,0.070132576,1.136244,-1.2444818000000002,1.1998132,1.0653276000000003,-1.3150657,-0.24205108,-2.2945356,1.5499426,0.7390494000000001,1.0962902,-0.42206177,0.69954723,-0.933795,1.5367175,-0.15474354,1.3276223999999999,1.2133848999999999,0.042184852,1.2861414,-1.5283327,-1.1648985,0.35105997,-1.2720941000000001,1.3059336000000001,-0.25934565,-0.14595866,-0.25291976,-0.36477488,0.55238706,-1.2401453000000002,0.51427495,0.14147778,-0.28018695,0.3191417,0.9186771999999999,0.059510615,-0.9343942,-1.0373653,1.8391107,0.38000184,0.06449897,0.792895,-0.41038162,-0.97523606,-2.7378299999999998,0.44517905,2.1157607999999994,0.924796
UUG9HC716,-0.48125306,-1.6572942,-0.15818120000000002,-0.095189415,0.31810847,2.1918947999999996,-0.54483,-0.3287826,0.9280816999999999,2.1642714,0.1977916,0.0026275658,-0.5785157,0.09009231,0.10923412,-1.4734883,0.8758999,-0.025761507000000003,-0.009742147,0.37146938,-1.1264104,1.5181082000000001,-0.44919696,-0.65807027,0.8842083000000001,0.5836956,0.28922233,-2.4539666,1.056309,1.8211783,0.17932358,0.4213418,-0.8422002000000001,-0.8550681,-0.10449747,0.33296058,2.6309134999999997,0.28953870000000004,1.6590084999999999,-0.3212349,1.9972763999999998,1.621337,0.6203098000000001,0.09912119,-0.6194400999999999,-0.5434358,-0.63597304,0.67480993,-0.30208626,0.0046857153000000006,1.3232257,-1.6013374,-0.28378853,-1.1367534,1.7396415,-0.43892756,0.47572124,0.32369015,-2.564375,-1.3261086000000002,-1.6036294,-0.27949136,-1.6346071000000002,0.40984887
USSGE8316,0.39747307,0.27543083,0.48111364,-0.30680057,0.5995425999999999,-0.40431035,-0.13475169,0.08235768,-0.26562859999999994,0.03920067,1.180926,0.17862676,-0.42024776,0.75500506,-0.5657868,0.32541025,-0.58558327,0.48317840000000006,0.7634433,0.006797115,-0.08950839,0.5218702000000001,0.20184161,-0.081521295,1.2806495,-0.26252532,0.09625931,-0.5745802,-0.44272209999999995,-0.53131515,-0.53840166,0.3636654,0.51285905,-0.49067432,-0.6383309,-0.3369543,-1.0154514000000001,-0.5951177,-0.6446668000000001,0.19378799,-0.49986374,0.22926328,0.12247379,-1.1840671999999999,-1.0524672,0.15988119,0.08639793,-0.28046656,0.48316342,-0.22969948,0.60780257,-0.57862663,-0.1344058,0.7348983,-0.032144177999999995,-0.36907026,-0.19623629999999997,-0.49526694,-0.35293797,0.8317385,0.75237983,0.7193418,-0.5414085,0.11005794
USGAKGG0H,0.084712125,1.2106777,-0.5743434000000001,0.82223606,-2.1327827,2.653283,-0.2744228,0.64077777,-0.03318072,1.3189738000000002,1.9050493000000002,-0.454581,0.23167156,1.5499169,-0.5902743,-2.1569927000000004,0.9209265,-1.4705348,0.897423,0.35879293,-0.66043717,0.07524055,-1.1105458000000001,0.45186076,-0.64157385,-0.9089478000000001,0.32076353,1.1465032,1.0769558000000001,0.3119788,-0.173509,-1.0893223,0.6366543,1.1089878999999998,-0.24575791,0.9103386999999998,0.16238962,-0.6422159000000001,-1.6422942999999999,-0.8854066999999999,1.4537102,1.2356093000000001,2.0373363,-0.6489828000000001,1.1822344999999999,0.82944065,-0.14123383,-0.8778256,-1.0469686,-1.118401,-0.7703908,-0.3689599,-1.1064433,-1.1264328000000001,-1.0784677,-0.33245218,-0.15920797,-0.77874935,0.7623469,2.3269017000000005,0.08157666,0.66945785,-0.5168864000000001,-1.4198844
U015KCQ5RRS,0.07418592,1.0091244000000001,-0.2600664,-0.14220247,-0.71054596,-1.2019106000000002,-0.15115218,0.59917897,-1.0202132,-0.9153943000000001,-0.45655176,-2.071206,-1.8427924,-1.3172438999999998,1.1053821000000001,1.5713323000000001,-0.37385708,-0.84427315,-0.647559,1.6033448000000001,0.32724264,-0.61345977,-0.64550066,2.7426467,-1.9402883000000002,-0.46677747,0.456765,0.565699,2.6520534,0.45173463,-0.69360346,-0.27796513,-0.31541687,-0.34170209999999995,0.59510523,0.6847026999999999,1.6595316000000002,1.1950048999999998,-2.6491938,-0.3631066,0.052785233,-1.5117083999999998,0.7899324000000001,-0.79383737,0.30816367,-1.5428334,-0.9752607,-1.0867666,-1.8625683999999998,-0.08819558,-1.5526038,-0.926659,0.9151136999999999,-0.52260053,0.21175294,0.12390751,0.80259717,0.8355163000000001,0.33253518,0.5946551,-0.7002276,1.0101588,-1.091382,-0.14219956
USGANCUFK,0.50627446,0.090416364,0.04389251,-0.55861956,0.5535869999999999,1.099308,0.60861534,-0.49644524,-0.2965919,-0.018304783999999998,0.30580163,-0.03595386,-0.3953947,-0.34357983,-0.10749789,-0.25283512,1.1700059999999999,0.44651368,0.6925766999999999,-0.7574675000000001,0.31718475,-0.45935857,0.2846587,0.083906375,0.22384383,-0.47034106,-0.33947635,0.09449361,-1.0227190000000002,0.6673995,-1.2805803,0.18932086,-0.049017668,0.17691383,-0.018025423999999998,-0.2950061,-0.08160159,0.10800397,-0.08798854,0.5450851999999999,-0.0851886,-0.13741867,-0.30452046,-0.5122758,0.021224216,0.36901578,-0.64881855,0.83192015,-0.14564276,0.09258999,-0.7694357,-0.32354513,-0.008061156,-0.22741146,-1.1616802,-0.3565776,0.0042363955,-0.15478157,-0.041790142999999995,0.26905809999999997,0.063387915,-0.5697867,0.29815359999999996,0.68778163
USUMBAD9U,-1.3404241000000001,-0.142923,-2.337065,2.0081136,-1.1429725,0.2208183,-0.45290527,3.274632,-2.3344536,-0.7970278000000001,-0.10404282,-1.3524443000000002,1.1005821000000002,-0.37767988,1.0973038999999998,-0.483951,-0.28772909999999996,1.6088254,-0.008737077,-0.16050437,-1.2327059999999999,1.5592676,1.2076018999999998,1.5926958,0.57325244,-0.08119609,1.2533789,1.3933902,-0.9586724,0.14322118,0.031169076,-0.23626527,-1.7772226000000002,0.79650724,1.107045,1.0927501,0.80891794,0.926493,0.35159698,1.9806572,-1.4627317,-0.3822923,0.88838875,2.1025257,0.7996376999999999,0.994347,-0.46407744,0.011949586000000002,0.51021105,0.65136623,1.1062082,-0.9879711999999999,-0.49304628,-0.011703698,0.6672018,-0.14940575,0.6877241999999999,-0.5652363,0.9939790999999999,-2.767745,1.1043285,0.32479352,0.504394,-0.153855
USF2N9Q0K,-0.45234129999999995,0.17309618,0.513346,0.7984817,0.3031773,0.7844308000000001,0.14348973,-0.15160087,-0.6297003000000001,0.90642434,0.8625273999999999,0.7588511,-0.23230644,0.010410955999999999,-0.5037693,0.13626172,0.36691755,-0.27547859999999996,0.24259433,-0.09469830000000001,-0.43573165,0.7311602,0.20427498,-0.37742776,0.7640651999999999,-0.24772584,0.281507,-0.56945837,0.5650173000000001,-0.013720808000000001,-0.8292802,-0.6851468000000001,-0.123151205,0.8552854999999999,-0.35011432,0.38331407,0.4604996,-0.57209396,-0.95454454,-0.25483775,0.81952643,0.097330645,-0.5830405,-0.5057809,-0.04353792,-0.08759962,0.047733974000000005,0.6688348000000001,0.68884695,0.19936238,-0.17756763,-0.85738176,-0.4615393,-0.124462105,0.20374848,-0.42174533,-0.28826264,-0.08000454,-0.5861041,-0.5420331,-0.19857147,0.07048672,-0.38306275,-0.33391312
USSGVL9TP,-0.19664513,-1.0604458,1.8817701,0.6030107,1.5678425,2.11857,0.22692366,-0.03383361,1.4373165,-0.8808193000000001,-1.2411124,-0.67441684,0.88292074,2.1140735,-0.70162123,1.1755081,2.5121691000000004,-0.13000406,-1.3465569,-0.1570069,1.7507905,-0.8171984999999999,-0.3089781,-0.55984193,0.9393254000000001,1.0629183999999998,-0.66208047,0.41208443,0.086491086,0.08392901,-0.15545224,-2.280312,1.2391037,-0.48722214,0.25571713,-0.026833573,-0.4218542,-0.30478337,-0.8915538000000001,0.13935799999999998,0.8442825999999999,-0.94881916,0.26614928,0.15538283,-0.45468363,0.06245016,0.06790193,-0.97490406,0.19957648,-0.11381789999999999,-0.3581415,0.77597594,1.0241476999999999,0.5948614999999999,1.4894538,0.75306636,-0.29419515,0.41510034,1.2988024,0.04041233,-0.7039171999999999,-0.30039465,0.02701257,0.15606389999999998
UVD2WE213,1.4648794,-0.29832559999999997,0.19572331,-0.22673234,0.47738582,0.47655195,-0.5600261,-1.1120605,2.9466722,-1.1380752,1.1821319,-0.21957813,0.51277554,-0.7666525,0.65029097,-0.58832526,-0.49503258,-0.11472163,-3.3924727,0.29574558,-0.76215476,0.047616873,0.03059268,-2.4004366000000004,0.3221863,0.76280814,-1.4249498,0.41389617,1.9338764,1.1580389,-0.28851083,-0.30899927,-0.54716974,-0.6069317,1.6197377,1.6046093000000001,-0.12650442,0.7041151999999999,-1.1006622,1.0710075000000001,-0.9361989,-0.987216,0.9740388000000001,0.67521805,-1.5915502000000001,-0.4373107,-0.7009759,-0.032522737999999995,-0.78459364,-0.037361104,0.6740772,0.61738956,-0.40034464,-0.89284676,0.042983047999999996,-0.25321472,-1.4377505,1.4367898000000001,-0.67376775,-1.133222,-0.78342694,-0.23637579999999997,-0.32132292,-0.5435808000000001
USSGSSQUD,-0.17041070000000003,-0.29541690000000004,0.81987613,-0.038015600000000004,0.40330386,1.0523068000000002,-0.15179828,0.08785167,-0.0037336233000000003,0.25997403,-0.09706654,0.011803963999999998,0.1933687,-0.62707275,-0.34348598,-0.00795318,0.43838936,0.18995875,-0.31694344,-0.23562592,0.61278176,0.27944613,-1.346549,0.42309916,0.9719061,0.27282470000000003,-0.35312068,-0.5965963000000001,1.3341583000000001,0.13188042,0.46132654,0.38523084,0.3759535,1.3207527000000001,0.34412885,-0.83204585,-0.30537352,-0.12002134,0.22315410000000002,-1.5351052,-0.7698115,0.13054116,-0.22136398,-0.563137,0.8322386999999999,0.40399975,-0.5256046999999999,-0.65809083,0.27975792,-0.14651951,-0.3105235,0.13969724,0.0198558,-0.5960849,-0.37076372,-0.60801107,-0.13680042,-0.60503596,-0.29971072,-0.30377275,0.20485355,-0.15648463,0.31516638,0.2367568
US2BZKLQY,-0.8624130999999999,-0.05490961,0.6337339,2.4604795,-0.78693974,-0.59890753,-0.74706805,-0.8836289,-2.1490362000000003,-0.8879802,0.23642871,0.40749386,-1.9076159,-0.4680426,-0.73919183,-0.72586024,-2.2936897000000003,-1.5697678,-0.6585555999999999,0.29719959999999995,-1.0402988000000002,-3.0931509,-0.29059044,-1.382831,1.1215475000000001,-1.1339723999999998,-0.9417546999999998,-1.118695,-1.9608169999999998,1.6155448000000001,0.8574988000000001,0.22494903,0.44068609999999997,0.949148,-0.687538,-1.3086962,-1.2830693000000002,0.3580556,0.478674,0.46262297,-0.03246156,-2.226313,-0.2786287,1.4955943999999999,1.8931417000000001,0.41080740000000004,-0.86178255,-1.2568035,-1.506422,1.2617975000000001,0.96636975,-0.42508352,0.44268078,-1.0254588,0.86721367,0.378788,0.28559303,1.0623773,-2.6179514,0.82928085,0.6183153,-0.1923592,-0.8318846999999999,0.067827895
USF4GBW59,-0.8434605,0.89580804,-0.17223348,-1.9578607,-3.0796354,-2.925862,0.9159575999999999,0.46713278,-0.12608282,-0.080277726,-0.16107799,0.7024102,-0.5436643,0.05685541,-0.11194321,0.3989473,0.543836,0.04386473,-1.2851397,-1.6653452000000002,-1.0377729,0.6863254,-1.0720264,-1.9207473000000002,-1.2323591999999999,-1.3118312,0.105077915,0.3522318,-1.595766,0.6622547,-3.4087248,1.0978940000000001,1.0118716,0.24418096,1.4624636999999998,-0.48172465,-0.24145347,0.7374753000000001,2.433831,1.2713741000000003,-0.261542,1.8691611000000001,0.10481093,-0.3154909,-0.3444273,0.62139344,0.5649436999999999,-0.63760036,0.54126763,-0.5457633000000001,-1.3128388,0.16632797,0.7773339,-0.31107518,-0.18956706,0.83722764,0.47239706,-0.22919755,1.0040269,0.7677658,0.5990270999999999,2.4026442,-0.7691720999999999,0.5442931
URXG8FF0D,0.19072352,0.6468010999999999,0.37143424,-0.20139828,0.5281846,-1.1110837,0.0069612134,-1.4626433,0.042303283,-0.56029737,0.5036449000000001,0.40654609999999997,0.30056120000000003,-0.28811756,-0.21676195,0.10967373,-0.7676408,-0.35158226,-1.1085608999999998,-0.0016598495,-0.06984602,-0.48895356,-0.11219236,-0.4640625,0.8403636999999999,0.43317926,-0.3098838,-0.45333666,0.40252802,0.06848212,0.22504891,0.733653,0.94153756,1.3728278999999999,1.2810032,0.17565961,-0.73077977,0.2034977,-0.9929198,0.5179331,0.06403399,-0.70497453,-0.15287277,0.28934342,-1.1338837,0.060649722999999996,0.61194855,0.07925661,-0.049484186,0.48546338,0.06917723,-0.07254772,-0.22054674,-0.9155434000000001,0.31506547,-1.262767,0.07906041,0.14840347,-0.9170874,-0.6361819000000001,-0.39852765,-0.33737734,-0.4498108,0.09554127
USG9Y7J57,-0.1834203,-0.01774786,-0.093315534,0.36715502,0.80381316,-0.23983344,0.20718209999999998,0.21619628,-1.0171421999999999,-0.2577295,-0.36317977,-0.9659937,-0.01501249,0.17808284,0.3754383,0.4518393,-0.56532663,-0.023818858,0.011292818,-0.5334194999999999,-0.40389517,0.67898434,0.8554299999999999,-0.18644206,0.2957355,-0.08419945,0.90692955,0.20359582,0.05622259,0.73431015,-0.06579600000000001,0.25902998,0.1430705,0.6918211,-0.96343505,0.08684641,-1.1899087,-0.06590138,-0.5830257,-0.18731792,1.0430547,-0.33853438,-0.20968156,0.23065697,0.7110358,0.6411798000000001,0.19996607,-0.41973343,-0.40111822,0.013915508,-0.59654033,0.39461446,-0.44407094,0.6194816999999999,-0.58826447,-0.05539497,0.7564377,-0.22612724,0.4451448,-0.76543826,0.12877254,0.36637112,0.47625032,0.6764174
U0117PFQXUK,-1.3682272,-0.934125,0.63338864,-0.48504683,-0.6635182,0.9590890999999999,-1.1739081,-0.11424689,1.0040251,0.5246692,0.010071099,0.9947481,0.30589244,-0.99331903,0.3920131,0.059520385999999995,0.23648891,0.96905655,0.5704212,0.5495488000000001,0.0629643,0.10871061,1.1651901000000002,0.058487255,-0.13915391,-1.1695781,-0.007112317,-0.84241134,0.5547614000000001,0.5030514,-0.42219105,0.5041611,-0.79544985,-0.5755438,-0.0029859669,0.32322290000000004,0.60513526,-0.8209021000000001,0.63664794,-0.25513878,-0.36238909999999996,-0.15991278,-0.5018449,-1.2981926000000001,0.0031714584000000004,0.41612855,-0.46661618,0.9069161,1.0719969999999999,-0.9817062,0.6925793,-1.1077542,0.76845443,-0.7537636999999999,0.2890232,-0.32682985,0.13995774,-0.6435274000000001,-1.0407399,-0.6892158,0.20261110000000002,0.85847163,-0.55634093,-1.4537615
UU65Z4EFK,-0.25937152,-0.40303895,0.17744467,0.26120996,0.27980527,0.4109786,-0.1666376,0.17011186,0.2921594,0.22903574,0.30584723,0.35098544,-0.3021574,-0.12155174,0.21877800000000003,0.014969871000000001,0.27623600000000004,0.42550698,-0.014103123,0.37831712,0.09132949,0.5020979999999999,0.07205268,-0.374452,0.53069866,-0.15933213,-0.12263343,0.22818232,-0.3114907,0.20187026,-0.99128747,0.06826752400000001,0.25643826,-0.13539715,0.12684062,-0.41738623,-0.6053510999999999,-0.20302585,-0.01836855,-0.46828452,-0.040876842999999996,0.28231552,-0.07331168,-0.021074912,-0.08801807,0.07819675,-0.65061873,0.18118095,0.8757971999999999,0.19551201,-0.532485,-0.09505429,0.48215294,0.034791302,-0.34508568,-0.38067436,-0.28621572,-0.14044204,0.33859727,0.013957522,0.49392807,0.3685091,0.12969244,-0.073139
USGAGN9DF,0.016069312,-0.028882379,0.43482715,0.04395742,0.28073186,0.62530655,-0.17969759,0.01255067,0.32080698,-0.07313911,0.18900801,0.28779309999999997,-0.033537097,0.26033276,0.032487307,-0.16771732,0.67060417,0.26631009999999994,0.37387845,0.16643146,0.24482918,0.1305527,0.21237001,-0.13148683,0.44097745,-0.24262378,-0.27758658,0.23128153,-0.38160098,0.23619977,-0.7868767,0.038922317000000005,0.48826912,-0.007602205,0.07179649,-0.67129993,-0.58789706,-0.49416292,-0.56231505,-0.17029351,-0.13905787,-0.075792,0.06933011,-0.33131146,-0.101172976,-0.05183346,-0.5863715,0.30307448,0.45745158,0.10805842,-0.21075657,-0.023804693,0.38932502,0.3385038,-0.4374487,-0.27629307,-0.37925488,0.008033251,0.17441902,0.64622813,0.21413095,0.2922385,0.3530494,-0.0446953
USS35MGH2,-0.6515519000000001,-0.09598522,-0.19418246,-0.12240045,0.11691571,0.78054726,-0.32592106,0.40017659999999994,-0.32621697,-0.15556303,0.117696315,-0.5435840999999999,-0.19489609,0.045807815999999994,0.32424542,0.36108333,-1.0811654,-0.22703545,0.45538935,0.08296856,-1.0438286,-0.45404920000000004,0.5579651999999999,-0.07792289999999999,-0.53909665,0.18148975,0.21710898,-0.06913912,0.69148004,-0.38384676,-0.5423284,0.0029819338000000003,-0.003563005,0.14521004,-0.26498058,-0.18178636,-0.3304278,-0.21600495,-1.1518753000000002,-0.42022200000000004,0.12739418,-0.29340926,-0.34081805,0.97560334,0.80626184,-0.1700465,-0.5443826,-1.1213117,1.1579791000000001,-1.0050646,-0.17375065,-0.052801747,-0.1634924,-0.5652581999999999,0.18974671,-0.20985861,0.086372726,0.31098014,0.59184617,-1.2946718000000002,0.16176778,-0.62498015,0.4967718,-0.50782436
USUNKDZL6,-1.5136291000000002,0.64796555,-1.9068017,-1.112226,0.47474575,-0.35843384,-0.028760811,0.33648629999999996,-0.70686555,-1.2373476,0.40500359999999996,-1.1514062,0.009871485,-1.2752622,-0.5861506,0.7450719,0.638772,-0.03842946,0.0841865,-1.0888311000000002,1.0440646,-0.42066127,-1.5677388,0.3487028,2.5187937999999996,0.90198314,-1.0271046999999998,1.9148101999999998,0.107999414,-0.4477326,1.0523496,0.59650064,-0.012024532,-1.6075131999999999,1.5208983,0.8884738999999999,0.7263541,-0.48301099999999997,0.6791701,0.398804,1.2521309999999999,0.70541185,-0.50678116,0.72862315,-2.1162255,1.0192151,0.6156245,0.71516,0.8854795,-0.38861758,-0.5296135999999999,0.025587363,1.806936,-1.9323113999999997,-1.2249273,-1.3931878999999998,-0.28321820000000003,-1.7477668999999998,-0.15407224,-1.6555977,-1.7454667000000001,-1.995063,-1.5245094,-0.57381916
USVRR0Z4K,0.6583319999999999,0.1565529,-0.8048637,0.38702646,-0.29174992,-1.5522311000000002,2.6111531,0.8420892,1.0889688,-2.8630888,-1.3533663999999999,-0.45581293,0.0005292771400000001,0.8469245000000001,0.013613433999999999,0.8565964,-0.81944907,-0.5889838000000001,-1.489992,-1.7835165000000002,-0.74015546,0.033573326,-1.2271649,0.62904483,-1.3816408000000002,1.2174364,0.009404828,-0.8444149999999999,1.0616614,-0.7089644,-0.29876083,-0.4778802,-0.25047272,-0.42995656,1.0944971000000001,0.4217593,-0.8106379,-0.32549557,0.104743846,1.9361581,-0.38103790000000004,0.3813742,-0.05328032,-0.45742380000000005,-0.16003720000000002,0.29324627,1.3211656999999999,-0.15810046,-1.3307461999999999,0.27078992,0.14327872,0.2872504,-0.005589396,0.21296433,0.35169592,0.6394006999999999,0.84875005,-1.8726881999999998,-1.2670658000000001,-0.73249346,-1.1063466,-0.17052463,-2.2652874,0.5590248999999999
U0153FV2WM8,-0.5135306,0.45577458,-1.6963447,1.5333858999999999,-1.3244871,-1.7516835,0.080336384,-0.7471196,-0.22393742,-0.81917477,-1.1494064,0.77193075,1.4949476000000002,-1.0289918,1.0857504999999998,-1.2366924,0.6165958,-1.3832917,0.25326148,-0.91115534,1.1970413999999998,-1.2194922,-0.05560313,1.2160507,1.3575688999999997,1.6713735,-0.014828269,0.07459187,0.42802548,-0.5602796999999999,0.8469428,1.3510981000000002,0.44096637,-1.8069188999999999,0.60016215,1.1412961000000001,-0.25424504,-0.9166199,-0.39241090000000006,2.4635906000000003,1.1593027,0.2590856,1.0053053,0.14300881,0.21632943,-0.69688296,1.5681725,0.7276633000000001,-0.8304149,-2.3387537,0.46691442,-0.82808423,-0.01825778,1.0379572,0.3854184,0.05902085,-0.8633105999999999,1.2575916999999999,-2.379297,0.5879795,-0.11639799,0.073126845,0.6446864999999999,-0.5916238
USG9D2QAV,0.4169696,0.98271704,-1.6920412,0.75247717,-1.1765542,1.5729454,-2.1996808,0.74304956,-0.37181035,0.94442147,0.8127430999999999,-0.8863989,0.5358455,1.4732822,-0.46370977,-1.9509851999999999,1.1775342,-1.4323622999999999,0.81681293,-0.16056773,-1.3739622999999999,0.116094165,-0.076034,-0.4309133,-1.2142829,-0.089405864,1.0092444,0.99549544,1.1744233,-0.048225522,-0.15465325,-1.6439078999999999,0.41367927,0.9648654000000001,0.025438907,1.1620727,-0.9012608,-0.63783187,-1.4229518,0.34187564,1.3763156,0.9823666999999999,1.8766425,0.27521090000000004,0.97231394,0.7600981,-0.7763111999999999,-1.4646002,-0.5708591,-1.0348644,-0.34014443,0.51573175,-0.9524079,-2.3311314999999997,-1.8844346,0.5586661999999999,-0.39089963,0.5997728,0.54441595,2.1636376,-1.01263,-1.0793190000000001,-0.010527483999999998,-0.95205337
USUC91J23,0.46605483,0.86820036,2.6099968,-0.7149743000000001,-1.5734468000000001,0.28934914,0.17730485,-0.5059508,-0.57328445,0.3096957,0.5607751,-2.2993376,-0.44725284,-1.4585238999999999,-0.5272835,-0.3824243,1.409238,-1.0712943000000001,-0.5376174,-0.33929005,-0.34774402,-0.18516219,0.50190336,-0.73631406,2.492524,-0.7279426,1.0322182,-0.19908784,0.41813138,0.4569782,1.4256495,-0.81904805,-0.6327293,-0.20264345,-0.91209865,0.33952972,-0.17950056,0.15319005,-0.66663605,-0.18172257,-1.2840651,0.49107444,1.5714805,0.13950643,0.08843662,-0.88215476,1.3495173,1.4815537,-0.5822345999999999,0.40900064,0.7282283,1.1544666000000001,1.0742836,0.797467,-0.41915053,0.39862153,1.2283194,0.96759874,1.2661265,1.6248088,0.44500974,-0.5443093000000001,0.6761659999999999,-0.15735404
U01092SUKL4,0.13800274,0.44143212,-1.075636,1.2086148,-0.43660277,0.06176075,-1.376555,0.95237935,-0.1531523,0.14952138,0.26585174,0.03911737,0.8097460999999999,-0.37692744,0.26580015,-0.33679828,-0.09671207,-0.12208242,-0.35450327,-0.26247913,0.7226001,0.17590155,-0.14043932,0.18024042,-0.8478952,0.07923494,0.09279769,0.049593597999999996,0.20156872,-0.43468595,0.33187866,-0.06781648,0.113527566,-0.6781449,0.12397384,-0.1548524,-0.09982002,-0.115918934,0.39331654,-0.25800663,-0.9189940999999999,-0.56950074,0.39168924,-0.29935557,-0.30047464,0.758472,0.6476086999999999,-0.30131453,-0.09757041,0.3584587,0.64599776,0.23883379,0.026587779,0.89887816,-0.1647244,-0.19319795,0.44492167,-0.30200005,0.24164517,-1.1448445,0.35846323,0.5467668000000001,1.1980445,0.38654512
USUCEQXAT,0.28785548,-0.24325392,0.13506038,-0.20019831,0.46271297,0.8597444,0.28577513,0.4714975,0.34651068,-0.21694368,0.23468064,0.005555447,0.29344538,0.7965005000000001,0.044449795,0.090689756,0.10868761,-0.6843421,-0.1331062,-0.28169182,0.62595564,-0.07984920599999999,0.5771291999999999,-0.5661301999999999,0.25881258,-0.3849978,0.5268416,0.3018942,-0.6836004,0.48273164,0.26970986,-0.25032289999999996,0.17852357,0.18866727,-0.5620066999999999,-0.11389102,-1.073851,-0.18439661,-0.1483901,-0.016723664,0.21605697,-0.3319232,-0.18929607,-0.103061415,0.49314964,-0.10391423,-0.071013406,0.08170091,0.08667595,0.1286972,-0.9289886,0.26206747,0.2236958,-0.04958767,-0.11776817,0.26024675,0.08349118,-0.34936762,-0.40794498,-0.05270573,-0.26300713,0.27236578,0.77969205,0.43683204
USSGKQR96,0.43075169999999996,-0.42544156,-0.08068666,-0.18342748,0.24923497,1.1003503000000001,0.23472907,0.15838917,0.48822194,-0.350011,0.25653234,-0.1870632,0.38968855,0.5593656,0.27337790000000006,0.06193516,0.50627905,0.015081716,-0.12537202,-0.52764136,0.9379511999999999,0.10531268,0.7588929,-0.6502729,-0.05982491400000001,-0.2691671,0.21981873,0.18293688,-0.6562657,0.66737574,-0.36229345,-0.08803603,0.033720806,0.04536985599999999,-0.23473425,0.23248899,-0.43483588,-0.04817026,-0.107712835,-0.3190772,0.25183323,-0.30672193,-0.18194652,0.14028484,0.11168071,0.07689555,-0.23681903,0.4724637,0.30547035,0.15359563,-1.0637742000000001,0.29276335,0.2475177,0.016524026,-0.440561,0.03984639,-0.15039587,-0.15424444,0.03515359,0.14774308,-0.09170006,0.3955425,0.43322277,0.17382167
USUNKE6R4,-0.061426308,-0.28377816,0.008011314,-0.021523762000000002,0.23053086,0.25789148,0.063181914,0.13882509,0.35467115,0.082992055,0.49730873,0.14374891,-0.0865378,0.13890347,0.29512462,0.08029203,0.4188554,0.44231033,0.21970820000000002,0.12325201,0.30844640000000006,-0.0807567,0.18711144,-0.24861433,0.5080164,-0.40437829999999997,0.14053237,0.6597494,-0.7349272,-0.05794818,-0.86836994,0.2931577,0.14198188,0.36447006,0.22312659,-0.3815117,-0.29082224,-0.39034495,-0.42154914,-0.41613835,-0.195675,-0.18764046,0.22978722,0.006199105999999999,-0.19205846,-0.16742748,-0.5075265999999999,0.5693845000000001,0.52524287,0.11223038,-0.48518469999999997,-0.25785735,0.28764823,0.12628952,-0.34624162,-0.40012547,-0.2020109,-0.21970108,0.007012578,0.47173157,0.1934769,0.10914667,0.23380828,0.045764547
USMPCPV6E,-0.09026841,-0.26328525,0.059689599999999995,0.28658774,0.45349374,0.45505154,0.24458815,0.015736695,0.4054447,-0.018412743,0.41615100000000005,0.27034494,-0.020517198,0.03709218,0.11566826,0.11899145,0.31570145,0.2585664,-0.122947395,-0.04672822,-0.06002103,-0.11079387,0.22870643,-0.035211942999999996,0.3202164,-0.037763942,0.467449,0.24714349,-0.20223936,0.37779429999999997,-0.6976382,0.040777999999999995,0.15896209,0.057103466,-0.16845338,-0.048316516,-0.32512993,-0.038775787,-0.22699387,-0.2996229,0.10305238,0.15725091,0.12476297,-0.012520513,0.25167134,-0.28507325,-0.14506456,0.042655095,0.08788711,-0.22982419,-0.55372614,-0.17085598,0.20346408,-0.23621910000000002,0.06769716,-0.3558754,-0.120944336,-0.07768633,-0.05849304,0.012797524,0.10186422,0.02175687,-0.12191538,-0.011203196
UU4R6N02F,0.22076114,-0.118914865,-0.8797927,0.16101567,0.6320179,-0.08453411599999999,-0.97392935,0.07780898,0.30694783,0.43219438,0.28957072,0.5322838000000001,-0.027393487999999997,-0.26720792,-0.29538587,-0.1254491,-0.27972043,0.28107008,-0.28570867,0.36660707,-0.8999351999999999,0.085905455,-0.12777053,-0.17522761,0.10603433,0.20663482,0.0010975,0.32361016,-0.6580590999999999,0.0021532946,0.02605535,-0.07338026,0.42876443,-0.508123,0.8613716999999999,-0.6580276999999999,-0.061757367,0.4258795999999999,0.16691728,0.017825734,0.50797194,0.32535508,0.56171316,-0.024285747000000003,-0.19887084,-0.574843,-0.47113094,0.5225442,0.46888739999999995,0.36808315,0.22556032,-0.38482285,0.8860425,-0.27493143,1.0464921999999999,0.08132412,0.009227188,-0.075397804,0.08999959,0.35364327,-0.55637807,0.10291038,-0.5239705,0.15307742
USSFJJH4M,-0.8544616,0.29419140000000005,0.73927426,0.15358676,0.99048394,-0.06496199,1.2986357,0.6343688,-0.5163123,-0.06518925,0.19145127,0.09818737,0.17371166,-0.23444477,-0.42816007,-0.93688995,0.6457997,0.82893956,-0.12535734,-0.031665795,1.2965735,-0.87670755,-0.8267738000000001,-0.3427651,1.0947746,-0.23543371,0.07566004,0.15010756,-0.086213715,-0.92503947,-0.66834176,0.99506193,-0.67099655,0.35331276,0.8753731,-0.25265879999999996,0.56868255,-0.6558308,-0.1416471,0.15625048,0.21039368,-0.41572943,0.765424,-0.35682052,-0.39729193,-0.5021595999999999,-0.23807272,1.1744108,-0.08397497,-0.7534401999999999,0.05803697,-0.44259685,-0.99112576,-0.13231714,-1.2367963,-0.055189006,0.26673532,-0.5678633000000001,-0.42832479999999995,0.08128041,0.6840198000000001,-0.11994604,0.40001875,1.084509
U0137262P46,-1.1562006,-0.46532807,1.3718989,-0.65542406,0.44019395,-0.06657403,-0.77216476,0.24921587,-1.3860565,0.28785828,-0.27910677,0.90355545,-0.08606521,0.151847,-1.1357152,0.091777466,-0.09338623,-0.48506823,0.47253582,-0.90440017,-0.20558332,1.006081,0.8746755999999999,-0.076110825,0.36443716,-0.5827413,-0.46428594,-0.87228996,0.46148378,-0.14464518,0.18986368,0.056943025,-0.22905841,-0.732038,-0.6562188,0.22934283,0.25373152,-0.030025465,-0.20054783,0.23147243,-0.09876507,-0.107191585,-0.9515892,-1.7071611,0.19634284,0.9227902,0.31077945,1.2891538999999999,1.1946682,-0.124865614,0.30466554,-1.2338618000000001,0.06289973,0.71192694,-0.23416232,0.6900156,-0.16996391,-0.2268223,-0.57756406,-0.5836690999999999,0.5811674,1.2545831,0.433521,-0.8249065999999999
U013U3H0PUK,0.09636793,0.110650994,0.07759637,0.26444587,-0.2701268,0.43011248,-0.15676987,0.10539076,0.124199755,0.25963205,0.33445114,0.12862042,0.099815115,-0.009166002,0.16334412,0.07591558,0.29305428,0.13738297,-0.071274176,-0.06178664,-0.0067390919999999995,-0.08791918,-0.02276535,-0.34407443,0.22685751,-0.40655959999999997,0.124784715,-0.007795458000000001,-0.5066729,-0.01544748,-0.403991,-0.05896465,0.2692887,0.40360937,0.3700874,-0.045777183,-0.27068636,-0.29450706,-0.10275316,-0.05577524,-0.30242166,0.3340189,-0.05439414,0.16055895,-0.1591018,-0.005131832,-0.41169490000000003,0.016636956,0.34906393,0.08993085,-0.16418427,-0.14300601,0.21482332,-0.14910808,-0.08898648,-0.6333758,0.12382037,0.07749055,0.30484040000000007,0.2361877,0.43788388,0.0045721657,-0.16524576,-0.359141
UT0P735LZ,0.092246786,-0.12810409,0.041156944,0.07436769,0.24261226,0.5495463,-0.2549479,0.058978282,0.03694048,0.26644903,0.08836459,-0.07112284,0.07737651,0.1306694,0.1904914,0.14192784,0.66051716,-0.032636605,0.17991482,-0.14950977,-0.08491172,0.45199177,-0.0038451365999999996,-0.013528583,0.2900973,0.058792874,0.12557916,-0.18503037,0.04409125,0.06697594400000001,-0.5417689,-0.25529733,0.29487807,0.37481222,-0.09243828,-0.13412397,-0.14326216,-0.23870708,-0.40267327,-0.12163510000000001,-0.21457475,0.11130456,-0.021956429,-0.2567997,-0.12011067,0.027707705,-0.10967550400000001,-0.021668352000000002,0.29401484,0.13126870000000002,-0.0822994,-0.01839154,0.060154945,0.1341079,-0.046506795999999996,-0.2742755,0.13336092,0.013101241000000001,0.11076002,-0.10390833,0.13296814,-0.105453126,0.14972779,0.09419678
UTCU7AP0W,0.53358555,-0.27643293,0.09995245,-0.32035175,0.77387184,0.93204117,0.48676223,0.28346387,0.053800806,-0.3666955,0.013919966,-0.23158766,0.31339478,0.73064667,0.09538424,-0.100442715,0.29716498,-0.44552726,-0.3762562,-0.54242754,0.9921614,0.13262084,0.8739963,-0.7640186,0.108565755,-0.0041744634999999995,0.53106856,0.21921815,-0.44616354,0.6021805,0.6290423,-0.30676797,0.061861433,-0.24189146,-0.565292,0.15006092,-0.39912692,0.2013828,-0.28578228,0.156618,0.46703982,-0.56939656,-0.100416176,-0.032849703,0.576388,-0.20280077,-0.18417394,0.44536147,-0.13383771,0.010577738,-1.0588405,0.43007070000000003,0.32833454,-0.32147658,-0.5497935,0.5268583,0.03733113,-0.13492553,-0.5312669,-0.038929317000000005,-0.13890341,0.028079537999999998,1.0660887,0.42410088
UTTUXN2SV,-0.23473112,-0.15911981,0.31329396,-0.19594207,-0.11021683,0.579199,0.12196296,0.027072283,0.38878277,0.08539785400000001,0.27391872,0.023363605,0.19080742,0.18050797,0.09992295,0.11442375,0.4529901,-0.2988843,-0.23500599,-0.020608416,0.251301,0.21988739999999998,-0.10373661,-0.45458344,0.23948805,-0.26666284,-0.02468933,0.43609914,-0.47672155,0.4120417,-0.7127386,0.110379376,-0.1090839,0.30707872,-0.17602445,-0.46247247,-0.36889154,-0.29176846,-0.32342315,-0.43068397,0.036776672999999996,-0.014992522,0.35498409999999997,-0.11403496,0.054971915,-0.03495632,-0.16901135,0.11765569,0.52239573,0.47872412,-0.3735239,0.07164116,0.50570303,0.04136836,0.39408493,-0.43830362,-0.3400885,-0.036738228,0.38022274,0.42442065,-0.013546695,0.1542714,-0.21530421,-0.24475117
USS4T50JY,-0.07583143,-0.09516089400000001,0.31825095,0.16679725,0.323856,0.30549097,-0.22504456,0.2732175,0.07032982,0.30933166,0.09094632400000001,0.0863347,0.02816562,-0.034176033,0.048768997,0.16567017,0.35060763,0.029084028999999997,0.06372862,-0.21542564,0.22454862,-0.10803153,-0.02768194,-0.22638647,0.41199097,-0.24990700000000002,0.010677371000000001,0.19931526,-0.10527085,-0.12280327,-0.23076677,0.16930337,0.24854474,0.055988643,0.090109274,-0.13220467,-0.21920599999999998,-0.1634175,-0.37197936,-0.3828843,0.00076700485,-0.101382665,0.07792576,-0.31143627,0.09955577,-0.19622993,-0.18866344,0.054556075,0.26674706,-0.20295507,-0.32484362,-0.14336692,0.055591866,0.18815163,-0.06255211,-0.008351861,0.16855136,0.008125327,0.24152161,0.16270379999999998,0.1117927,-0.09567278,0.24333334,-0.055067655
USSGKRKRN,1.1493076999999998,-0.08038341,-0.41573940000000004,-0.24280341,0.6387308,0.7069489999999999,0.2219109,-0.23918569,0.24134567,-0.14743063,0.17086023,-0.11060739,0.29764283,0.3369793,0.15257895,0.16460265,-0.06852481,-0.23386163,-0.15616370000000002,-0.6118382,0.7327996999999999,-0.1617674,0.20100857,-0.8705844000000001,-0.3507623,-0.093939476,0.7206746999999999,0.20649102,-0.6087794,0.7321025,0.35112202,-0.20581886,0.30807966,-0.25226295,-0.21475337,0.07058228,-0.6883994999999999,0.12476043,0.19489147,-0.0029071763,0.40313295,-0.11633651,-0.43321553,-0.16956864,0.5625821999999999,-0.030759111000000002,-0.02450593,0.26904944,-0.22252868,-0.050659623,-1.2343318,0.7227594,0.30707788,-0.46050749999999996,-0.6219180000000001,0.034305584,0.35824978,-0.2619509,-0.32933682,-0.30289578,-0.018259529,0.20659763,0.99925756,0.49382937
USDNX5QSE,-0.006249325,-0.437933,0.285003,-0.075268365,0.18530077,0.09090357,-0.22576831,0.22821814,0.2710189,0.25665033,0.24884157,0.0051721577,0.050164327,0.07386494,0.19038762,-0.03085539,0.4751222,-0.027021457999999998,-0.14810535,-0.089652225,0.25584248,0.23612199999999997,0.082180865,-0.22701406,0.27627632,-0.13388753,0.07146857,0.10930741,-0.19503108,-0.12787108,-0.25858626,0.07551053,0.1676435,0.14093286,-0.23581636,-0.20243324,-0.30717334,-0.18069889,-0.08993528,-0.52757996,-0.06557134,0.2682067,0.11915619999999999,-0.20940909,-0.1407016,0.16268525,-0.06519554,0.34556290000000006,0.26413366,0.13699393,-0.292043,-0.08051744,0.22405279999999997,0.33622944,-0.16161543,-0.13674462,0.037499957,-0.09754841,0.00030391863999999996,0.43385026,0.05720718599999999,0.049264245,0.19268468,0.012686361
U010SLWBHCK,-0.17308927,-0.041102365,0.106911995,0.3036893,0.11627391,0.29116893,0.008154247,0.007210529,0.09523165,-0.015161768,0.44721803,0.24095419,-0.002571538,-0.07066889999999999,0.25264186,0.0037299169,0.39633070000000004,-0.00960047,0.028598767,0.05798206,0.061654485999999994,0.058699213,0.20402549,-0.12300295,0.20167011,-0.25172496,0.0002122077,-0.07610798,-0.18971731,0.28725517,-0.52831066,0.14438613,0.09081044,-0.055218905,0.07725847,-0.09893894,-0.1905547,-0.25623465,-0.17035711,-0.41804278,-0.019585209,0.16089669,-0.22804481,-0.056736514,0.010740733999999998,0.103000775,-0.101196095,0.57128406,0.46118912,-0.089592114,-0.44494247,0.036710203,0.08110942,0.24686341,-0.5131143,-0.28461838,0.06131304,-0.13898426,0.34783408,-0.13595507,0.21845326,0.3471504,0.3596557,-0.028426226000000002
USF2R63C3,0.13422823,0.10853495,-0.114640005,-0.034522217,-0.115805164,0.3485658,0.12215061,-0.11144733,-0.10701806,0.19523579,0.34947613,-0.17273097,-0.045056824,-0.014991726,0.11483524,0.16782808,0.36389488,0.11940492,0.18357113,-0.048353843,0.16633742,0.18781620000000002,-0.07055808599999999,-0.09591788,0.1564759,0.00941929,0.34895784,0.25537172,-0.15781148,0.14063603,-0.60975665,0.05336231,0.12621602,0.16233277,0.090587154,-0.19255769,-0.19689217,-0.16163532,-0.37290666,-0.05401072,-0.0832708,0.20378728,0.24142009,-0.1258742,-0.072828755,0.005568015999999999,-0.24336179,0.22782636,0.24062066,0.066993654,-0.19075315,-0.13076502,0.1578693,0.15359585,-0.23479362,-0.51369834,0.079083055,-0.007928168000000001,0.33254063,0.04688543,0.35777408,0.11955256,0.36751866,-0.048145317
